<?xml version="1.0"?>
<MethodSetup Method="BDT::BDT">
  <GeneralInfo>
    <Info name="TMVA Release" value="4.2.1 [262657]"/>
    <Info name="ROOT Release" value="6.26/06 [399878]"/>
    <Info name="Creator" value="markm"/>
    <Info name="Date" value="Sat Oct  1 14:39:23 2022"/>
    <Info name="Host" value="Linux Marks-Desktop 5.10.102.1-microsoft-standard-WSL2 #1 SMP Wed Mar 2 00:30:59 UTC 2022 x86_64 x86_64 x86_64 GNU/Linux"/>
    <Info name="Dir" value="/home/markm/code/EAL"/>
    <Info name="Training events" value="176323"/>
    <Info name="TrainingTime" value="4.30931249e+01"/>
    <Info name="AnalysisType" value="Classification"/>
  </GeneralInfo>
  <Options>
    <Option name="V" modified="Yes">False</Option>
    <Option name="VerbosityLevel" modified="No">Default</Option>
    <Option name="VarTransform" modified="No">None</Option>
    <Option name="H" modified="Yes">False</Option>
    <Option name="CreateMVAPdfs" modified="No">False</Option>
    <Option name="IgnoreNegWeightsInTraining" modified="No">False</Option>
    <Option name="NTrees" modified="Yes">1000</Option>
    <Option name="MaxDepth" modified="Yes">4</Option>
    <Option name="MinNodeSize" modified="Yes">1%</Option>
    <Option name="nCuts" modified="Yes">20</Option>
    <Option name="BoostType" modified="Yes">AdaBoost</Option>
    <Option name="AdaBoostR2Loss" modified="No">quadratic</Option>
    <Option name="UseBaggedBoost" modified="Yes">True</Option>
    <Option name="Shrinkage" modified="No">1.000000e+00</Option>
    <Option name="AdaBoostBeta" modified="Yes">2.000000e-01</Option>
    <Option name="UseRandomisedTrees" modified="Yes">False</Option>
    <Option name="UseNvars" modified="Yes">2</Option>
    <Option name="UsePoissonNvars" modified="No">True</Option>
    <Option name="BaggedSampleFraction" modified="Yes">5.000000e-01</Option>
    <Option name="UseYesNoLeaf" modified="No">True</Option>
    <Option name="NegWeightTreatment" modified="Yes">ignorenegweightsintraining</Option>
    <Option name="Css" modified="No">1.000000e+00</Option>
    <Option name="Cts_sb" modified="No">1.000000e+00</Option>
    <Option name="Ctb_ss" modified="No">1.000000e+00</Option>
    <Option name="Cbb" modified="No">1.000000e+00</Option>
    <Option name="NodePurityLimit" modified="No">5.000000e-01</Option>
    <Option name="SeparationType" modified="Yes">giniindex</Option>
    <Option name="RegressionLossFunctionBDTG" modified="No">huber</Option>
    <Option name="HuberQuantile" modified="No">7.000000e-01</Option>
    <Option name="DoBoostMonitor" modified="No">False</Option>
    <Option name="UseFisherCuts" modified="No">False</Option>
    <Option name="MinLinCorrForFisher" modified="No">8.000000e-01</Option>
    <Option name="UseExclusiveVars" modified="No">False</Option>
    <Option name="DoPreselection" modified="No">False</Option>
    <Option name="SigToBkgFraction" modified="No">1.000000e+00</Option>
    <Option name="PruneMethod" modified="No">nopruning</Option>
    <Option name="PruneStrength" modified="No">0.000000e+00</Option>
    <Option name="PruningValFraction" modified="No">5.000000e-01</Option>
    <Option name="SkipNormalization" modified="No">False</Option>
    <Option name="nEventsMin" modified="No">0</Option>
    <Option name="UseBaggedGrad" modified="No">False</Option>
    <Option name="GradBaggingFraction" modified="No">5.000000e-01</Option>
    <Option name="UseNTrainEvents" modified="No">0</Option>
    <Option name="NNodesMax" modified="No">0</Option>
  </Options>
  <Variables NVar="15">
    <Variable VarIndex="0" Expression="bos_PuppiAK8_eta" Label="bos_PuppiAK8_eta" Title="bos_PuppiAK8_eta" Unit="" Internal="bos_PuppiAK8_eta" Type="F" Min="-2.39990234e+00" Max="2.39990234e+00"/>
    <Variable VarIndex="1" Expression="bos_PuppiAK8_m_sd0_corr" Label="bos_PuppiAK8_m_sd0_corr" Title="bos_PuppiAK8_m_sd0_corr" Unit="" Internal="bos_PuppiAK8_m_sd0_corr" Type="F" Min="6.50625000e+01" Max="1.04937500e+02"/>
    <Variable VarIndex="2" Expression="bos_PuppiAK8_tau2tau1" Label="bos_PuppiAK8_tau2tau1" Title="bos_PuppiAK8_tau2tau1" Unit="" Internal="bos_PuppiAK8_tau2tau1" Type="F" Min="7.17628840e-03" Max="5.49974859e-01"/>
    <Variable VarIndex="3" Expression="dibos_m" Label="dibos_m" Title="dibos_m" Unit="" Internal="dibos_m" Type="F" Min="1.24457977e+02" Max="5.76162402e+03"/>
    <Variable VarIndex="4" Expression="lep1_eta" Label="lep1_eta" Title="lep1_eta" Unit="" Internal="lep1_eta" Type="F" Min="-2.50000000e+00" Max="2.49951172e+00"/>
    <Variable VarIndex="5" Expression="nJet30f" Label="nJet30f" Title="nJet30f" Unit="" Internal="nJet30f" Type="F" Min="2.00000000e+00" Max="1.30000000e+01"/>
    <Variable VarIndex="6" Expression="vbf1_AK4_eta" Label="vbf1_AK4_eta" Title="vbf1_AK4_eta" Unit="" Internal="vbf1_AK4_eta" Type="F" Min="-4.66601562e+00" Max="4.67871094e+00"/>
    <Variable VarIndex="7" Expression="vbf1_AK4_qgid" Label="vbf1_AK4_qgid" Title="vbf1_AK4_qgid" Unit="" Internal="vbf1_AK4_qgid" Type="F" Min="3.32947820e-08" Max="1.00000000e+00"/>
    <Variable VarIndex="8" Expression="vbf2_AK4_eta" Label="vbf2_AK4_eta" Title="vbf2_AK4_eta" Unit="" Internal="vbf2_AK4_eta" Type="F" Min="-4.68457031e+00" Max="4.69726562e+00"/>
    <Variable VarIndex="9" Expression="vbf2_AK4_qgid" Label="vbf2_AK4_qgid" Title="vbf2_AK4_qgid" Unit="" Internal="vbf2_AK4_qgid" Type="F" Min="4.57465649e-06" Max="1.00000000e+00"/>
    <Variable VarIndex="10" Expression="vbf_deta" Label="vbf_deta" Title="vbf_deta" Unit="" Internal="vbf_deta" Type="F" Min="2.50012207e+00" Max="9.11816406e+00"/>
    <Variable VarIndex="11" Expression="vbf_eta" Label="vbf_eta" Title="vbf_eta" Unit="" Internal="vbf_eta" Type="F" Min="-8.29465294e+00" Max="7.92965174e+00"/>
    <Variable VarIndex="12" Expression="vbf_m" Label="vbf_m" Title="vbf_m" Unit="" Internal="vbf_m" Type="F" Min="5.00000275e+02" Max="8.59642480e+03"/>
    <Variable VarIndex="13" Expression="zeppHad" Label="zeppHad" Title="zeppHad" Unit="" Internal="zeppHad" Type="F" Min="-3.23193359e+00" Max="3.24438477e+00"/>
    <Variable VarIndex="14" Expression="zeppLep" Label="zeppLep" Title="zeppLep" Unit="" Internal="zeppLep" Type="F" Min="-3.48477864e+00" Max="3.48070431e+00"/>
  </Variables>
  <Spectators NSpec="60">
    <Spectator SpecIndex="0" Expression="AntiIsoInt" Label="AntiIsoInt" Title="I" Unit="" Internal="AntiIsoInt" Type="F" Min="0.00000000e+00" Max="0.00000000e+00"/>
    <Spectator SpecIndex="1" Expression="bos_AK4AK4_eta" Label="bos_AK4AK4_eta" Title="F" Unit="" Internal="bos_AK4AK4_eta" Type="F" Min="-9.99000000e+02" Max="-9.99000000e+02"/>
    <Spectator SpecIndex="2" Expression="bos_AK4AK4_m" Label="bos_AK4AK4_m" Title="F" Unit="" Internal="bos_AK4AK4_m" Type="F" Min="-9.99000000e+02" Max="-9.99000000e+02"/>
    <Spectator SpecIndex="3" Expression="bos_AK4AK4_pt" Label="bos_AK4AK4_pt" Title="F" Unit="" Internal="bos_AK4AK4_pt" Type="F" Min="-9.99000000e+02" Max="-9.99000000e+02"/>
    <Spectator SpecIndex="4" Expression="bosCent" Label="bosCent" Title="F" Unit="" Internal="bosCent" Type="F" Min="1.11022302e-16" Max="4.13032436e+00"/>
    <Spectator SpecIndex="5" Expression="bos_j1_AK4_eta" Label="bos_j1_AK4_eta" Title="F" Unit="" Internal="bos_j1_AK4_eta" Type="F" Min="-9.99000000e+02" Max="-9.99000000e+02"/>
    <Spectator SpecIndex="6" Expression="bos_j1_AK4_pt" Label="bos_j1_AK4_pt" Title="F" Unit="" Internal="bos_j1_AK4_pt" Type="F" Min="-9.99000000e+02" Max="-9.99000000e+02"/>
    <Spectator SpecIndex="7" Expression="bos_j2_AK4_eta" Label="bos_j2_AK4_eta" Title="F" Unit="" Internal="bos_j2_AK4_eta" Type="F" Min="-9.99000000e+02" Max="-9.99000000e+02"/>
    <Spectator SpecIndex="8" Expression="bos_j2_AK4_pt" Label="bos_j2_AK4_pt" Title="F" Unit="" Internal="bos_j2_AK4_pt" Type="F" Min="-9.99000000e+02" Max="-9.99000000e+02"/>
    <Spectator SpecIndex="9" Expression="bos_PuppiAK8_m_sd0" Label="bos_PuppiAK8_m_sd0" Title="F" Unit="" Internal="bos_PuppiAK8_m_sd0" Type="F" Min="6.50625000e+01" Max="1.04937500e+02"/>
    <Spectator SpecIndex="10" Expression="bos_PuppiAK8_phi" Label="bos_PuppiAK8_phi" Title="F" Unit="" Internal="bos_PuppiAK8_phi" Type="F" Min="-3.14160156e+00" Max="3.14160156e+00"/>
    <Spectator SpecIndex="11" Expression="bos_PuppiAK8_pt" Label="bos_PuppiAK8_pt" Title="F" Unit="" Internal="bos_PuppiAK8_pt" Type="F" Min="2.00125000e+02" Max="2.97200000e+03"/>
    <Spectator SpecIndex="12" Expression="btagWeight_loose" Label="btagWeight_loose" Title="F" Unit="" Internal="btagWeight_loose" Type="F" Min="4.67592657e-01" Max="2.44170141e+00"/>
    <Spectator SpecIndex="13" Expression="dibos_eta" Label="dibos_eta" Title="F" Unit="" Internal="dibos_eta" Type="F" Min="-6.34699965e+00" Max="8.19935417e+00"/>
    <Spectator SpecIndex="14" Expression="dibos_mt" Label="dibos_mt" Title="F" Unit="" Internal="dibos_mt" Type="F" Min="2.76611389e+02" Max="5.79364746e+03"/>
    <Spectator SpecIndex="15" Expression="dibos_phi" Label="dibos_phi" Title="F" Unit="" Internal="dibos_phi" Type="F" Min="-3.14158440e+00" Max="3.14152360e+00"/>
    <Spectator SpecIndex="16" Expression="dibos_pt" Label="dibos_pt" Title="F" Unit="" Internal="dibos_pt" Type="F" Min="7.17565894e-01" Max="2.80505176e+03"/>
    <Spectator SpecIndex="17" Expression="dilep_eta" Label="dilep_eta" Title="F" Unit="" Internal="dilep_eta" Type="F" Min="-4.07082987e+00" Max="3.82504773e+00"/>
    <Spectator SpecIndex="18" Expression="dilep_m" Label="dilep_m" Title="F" Unit="" Internal="dilep_m" Type="F" Min="5.74390113e-01" Max="1.77954602e+03"/>
    <Spectator SpecIndex="19" Expression="dilep_mt" Label="dilep_mt" Title="F" Unit="" Internal="dilep_mt" Type="F" Min="5.71527863e+01" Max="2.87937500e+03"/>
    <Spectator SpecIndex="20" Expression="dilep_phi" Label="dilep_phi" Title="F" Unit="" Internal="dilep_phi" Type="F" Min="-3.14154959e+00" Max="3.14159226e+00"/>
    <Spectator SpecIndex="21" Expression="dilep_pt" Label="dilep_pt" Title="F" Unit="" Internal="dilep_pt" Type="F" Min="9.94961441e-01" Max="2.86062231e+03"/>
    <Spectator SpecIndex="22" Expression="evt" Label="evt" Title="I" Unit="" Internal="evt" Type="F" Min="5.50000000e+01" Max="2.40743472e+08"/>
    <Spectator SpecIndex="23" Expression="genWeight" Label="genWeight" Title="F" Unit="" Internal="genWeight" Type="F" Min="-3.03359375e+02" Max="3.16468750e+02"/>
    <Spectator SpecIndex="24" Expression="gid" Label="gid" Title="I" Unit="" Internal="gid" Type="F" Min="1.00000000e+00" Max="1.50000000e+01"/>
    <Spectator SpecIndex="25" Expression="L1PFWeight" Label="L1PFWeight" Title="F" Unit="" Internal="L1PFWeight" Type="F" Min="4.38856743e-02" Max="1.00000000e+00"/>
    <Spectator SpecIndex="26" Expression="lep1_idEffWeight" Label="lep1_idEffWeight" Title="F" Unit="" Internal="lep1_idEffWeight" Type="F" Min="8.67357492e-01" Max="1.06021249e+00"/>
    <Spectator SpecIndex="27" Expression="lep1_iso" Label="lep1_iso" Title="F" Unit="" Internal="lep1_iso" Type="F" Min="0.00000000e+00" Max="1.49991751e-01"/>
    <Spectator SpecIndex="28" Expression="lep1_m" Label="lep1_m" Title="F" Unit="" Internal="lep1_m" Type="F" Min="5.10999991e-04" Max="1.05658375e-01"/>
    <Spectator SpecIndex="29" Expression="lep1_phi" Label="lep1_phi" Title="F" Unit="" Internal="lep1_phi" Type="F" Min="-3.14160156e+00" Max="3.14160156e+00"/>
    <Spectator SpecIndex="30" Expression="lep1_pt" Label="lep1_pt" Title="F" Unit="" Internal="lep1_pt" Type="F" Min="2.50003796e+01" Max="2.50739941e+03"/>
    <Spectator SpecIndex="31" Expression="lep1_q" Label="lep1_q" Title="F" Unit="" Internal="lep1_q" Type="F" Min="-1.00000000e+00" Max="1.00000000e+00"/>
    <Spectator SpecIndex="32" Expression="lep1_trigEffWeight" Label="lep1_trigEffWeight" Title="F" Unit="" Internal="lep1_trigEffWeight" Type="F" Min="1.00000000e+00" Max="1.00000000e+00"/>
    <Spectator SpecIndex="33" Expression="lep2_eta" Label="lep2_eta" Title="F" Unit="" Internal="lep2_eta" Type="F" Min="-9.99000000e+02" Max="-9.99000000e+02"/>
    <Spectator SpecIndex="34" Expression="lep2_idEffWeight" Label="lep2_idEffWeight" Title="F" Unit="" Internal="lep2_idEffWeight" Type="F" Min="1.00000000e+00" Max="1.00000000e+00"/>
    <Spectator SpecIndex="35" Expression="lep2_phi" Label="lep2_phi" Title="F" Unit="" Internal="lep2_phi" Type="F" Min="-9.99000000e+02" Max="-9.99000000e+02"/>
    <Spectator SpecIndex="36" Expression="lep2_pt" Label="lep2_pt" Title="F" Unit="" Internal="lep2_pt" Type="F" Min="-9.99000000e+02" Max="-9.99000000e+02"/>
    <Spectator SpecIndex="37" Expression="lep2_trigEffWeight" Label="lep2_trigEffWeight" Title="F" Unit="" Internal="lep2_trigEffWeight" Type="F" Min="1.00000000e+00" Max="1.00000000e+00"/>
    <Spectator SpecIndex="38" Expression="lumin" Label="lumin" Title="F" Unit="" Internal="lumin" Type="F" Min="3.58670586e+04" Max="5.97400000e+04"/>
    <Spectator SpecIndex="39" Expression="mcWeight" Label="mcWeight" Title="F" Unit="" Internal="mcWeight" Type="F" Min="3.87841065e-10" Max="4.60524570e-05"/>
    <Spectator SpecIndex="40" Expression="MET" Label="MET" Title="F" Unit="" Internal="MET" Type="F" Min="3.00022945e+01" Max="2.64325659e+03"/>
    <Spectator SpecIndex="41" Expression="MET_phi" Label="MET_phi" Title="F" Unit="" Internal="MET_phi" Type="F" Min="-3.14152241e+00" Max="3.14157319e+00"/>
    <Spectator SpecIndex="42" Expression="nBtag_loose" Label="nBtag_loose" Title="I" Unit="" Internal="nBtag_loose" Type="F" Min="0.00000000e+00" Max="0.00000000e+00"/>
    <Spectator SpecIndex="43" Expression="nBtag_medium" Label="nBtag_medium" Title="I" Unit="" Internal="nBtag_medium" Type="F" Min="0.00000000e+00" Max="0.00000000e+00"/>
    <Spectator SpecIndex="44" Expression="neu_pz_type0" Label="neu_pz_type0" Title="F" Unit="" Internal="neu_pz_type0" Type="F" Min="-9.99000000e+02" Max="-9.99000000e+02"/>
    <Spectator SpecIndex="45" Expression="nJet30" Label="nJet30" Title="I" Unit="" Internal="nJet30" Type="F" Min="2.00000000e+00" Max="1.30000000e+01"/>
    <Spectator SpecIndex="46" Expression="nJet50" Label="nJet50" Title="I" Unit="" Internal="nJet50" Type="F" Min="2.00000000e+00" Max="1.00000000e+01"/>
    <Spectator SpecIndex="47" Expression="nPV" Label="nPV" Title="F" Unit="" Internal="nPV" Type="F" Min="1.00000000e+00" Max="9.10000000e+01"/>
    <Spectator SpecIndex="48" Expression="puWeight" Label="puWeight" Title="F" Unit="" Internal="puWeight" Type="F" Min="0.00000000e+00" Max="4.69509277e+01"/>
    <Spectator SpecIndex="49" Expression="run" Label="run" Title="I" Unit="" Internal="run" Type="F" Min="1.00000000e+00" Max="1.00000000e+00"/>
    <Spectator SpecIndex="50" Expression="vbf1_AK4_m" Label="vbf1_AK4_m" Title="F" Unit="" Internal="vbf1_AK4_m" Type="F" Min="2.63671875e+00" Max="3.87000000e+02"/>
    <Spectator SpecIndex="51" Expression="vbf1_AK4_phi" Label="vbf1_AK4_phi" Title="F" Unit="" Internal="vbf1_AK4_phi" Type="F" Min="-3.14160156e+00" Max="3.14160156e+00"/>
    <Spectator SpecIndex="52" Expression="vbf1_AK4_pt" Label="vbf1_AK4_pt" Title="F" Unit="" Internal="vbf1_AK4_pt" Type="F" Min="5.00337830e+01" Max="2.70188965e+03"/>
    <Spectator SpecIndex="53" Expression="vbf2_AK4_m" Label="vbf2_AK4_m" Title="F" Unit="" Internal="vbf2_AK4_m" Type="F" Min="1.34570312e+00" Max="2.08250000e+02"/>
    <Spectator SpecIndex="54" Expression="vbf2_AK4_phi" Label="vbf2_AK4_phi" Title="F" Unit="" Internal="vbf2_AK4_phi" Type="F" Min="-3.14160156e+00" Max="3.14160156e+00"/>
    <Spectator SpecIndex="55" Expression="vbf2_AK4_pt" Label="vbf2_AK4_pt" Title="F" Unit="" Internal="vbf2_AK4_pt" Type="F" Min="5.00001640e+01" Max="1.52953638e+03"/>
    <Spectator SpecIndex="56" Expression="vbf_phi" Label="vbf_phi" Title="F" Unit="" Internal="vbf_phi" Type="F" Min="-3.14153814e+00" Max="3.14158297e+00"/>
    <Spectator SpecIndex="57" Expression="vbf_pt" Label="vbf_pt" Title="F" Unit="" Internal="vbf_pt" Type="F" Min="4.37140286e-01" Max="2.74169897e+03"/>
    <Spectator SpecIndex="58" Expression="year" Label="year" Title="I" Unit="" Internal="year" Type="F" Min="2.01600000e+03" Max="2.01800000e+03"/>
    <Spectator SpecIndex="59" Expression="class_id" Label="class_id" Title="I" Unit="" Internal="class_id" Type="F" Min="0.00000000e+00" Max="1.00000000e+00"/>
  </Spectators>
  <Classes NClass="2">
    <Class Name="Signal" Index="0"/>
    <Class Name="Background" Index="1"/>
  </Classes>
  <Transformations NTransformations="0"/>
  <MVAPdfs/>
  <Weights NTrees="1000" AnalysisType="0">
    <BinaryTree type="DecisionTree" boostWeight="1.7271834131206418e-01" itree="0">
      <Node pos="s" depth="0" NCoef="0" IVar="12" Cut="1.2710883789062500e+03" cType="0" res="-9.9000000000000000e+01" rms="0.0000000000000000e+00" purity="4.9858134984970093e-01" nType="0">
        <Node pos="l" depth="1" NCoef="0" IVar="2" Cut="3.6903753876686096e-01" cType="1" res="-9.9000000000000000e+01" rms="0.0000000000000000e+00" purity="6.9465333223342896e-01" nType="0">
          <Node pos="l" depth="2" NCoef="0" IVar="-1" Cut="3.1428570747375488e+00" cType="1" res="-9.9000000000000000e+01" rms="0.0000000000000000e+00" purity="7.7994352579116821e-01" nType="1"/>
          <Node pos="r" depth="2" NCoef="0" IVar="12" Cut="2.0778261718750000e+03" cType="0" res="-9.9000000000000000e+01" rms="0.0000000000000000e+00" purity="5.4244160652160645e-01" nType="0">
            <Node pos="l" depth="3" NCoef="0" IVar="-1" Cut="3.4285714626312256e+00" cType="1" res="-9.9000000000000000e+01" rms="0.0000000000000000e+00" purity="7.0069843530654907e-01" nType="1"/>
            <Node pos="r" depth="3" NCoef="0" IVar="-1" Cut="1.3065255880355835e+00" cType="1" res="-9.9000000000000000e+01" rms="0.0000000000000000e+00" purity="4.5420542359352112e-01" nType="-1"/>
          </Node>
        </Node>
        <Node pos="r" depth="1" NCoef="0" IVar="2" Cut="3.3119311928749084e-01" cType="1" res="-9.9000000000000000e+01" rms="0.0000000000000000e+00" purity="3.4946236014366150e-01" nType="0">
          <Node pos="l" depth="2" NCoef="0" IVar="12" Cut="9.4060375976562500e+02" cType="0" res="-9.9000000000000000e+01" rms="0.0000000000000000e+00" purity="4.9788016080856323e-01" nType="0">
            <Node pos="l" depth="3" NCoef="0" IVar="-1" Cut="2.3809523582458496e+00" cType="1" res="-9.9000000000000000e+01" rms="0.0000000000000000e+00" purity="6.2253016233444214e-01" nType="1"/>
            <Node pos="r" depth="3" NCoef="0" IVar="7" Cut="6.6634118556976318e-01" cType="0" res="-9.9000000000000000e+01" rms="0.0000000000000000e+00" purity="4.2178899049758911e-01" nType="0">
              <Node pos="l" depth="4" NCoef="0" IVar="-1" Cut="0.0000000000000000e+00" cType="1" res="-9.9000000000000000e+01" rms="0.0000000000000000e+00" purity="5.1113432645797729e-01" nType="1"/>
              <Node pos="r" depth="4" NCoef="0" IVar="-1" Cut="0.0000000000000000e+00" cType="1" res="-9.9000000000000000e+01" rms="0.0000000000000000e+00" purity="3.4148645401000977e-01" nType="-1"/>
            </Node>
          </Node>
          <Node pos="r" depth="2" NCoef="0" IVar="-1" Cut="8.6712408447265625e+02" cType="0" res="-9.9000000000000000e+01" rms="0.0000000000000000e+00" purity="2.3416946828365326e-01" nType="-1"/>
        </Node>
      </Node>
    </BinaryTree>
    <BinaryTree type="DecisionTree" boostWeight="1.5994526040668844e-01" itree="1">
      <Node pos="s" depth="0" NCoef="0" IVar="12" Cut="1.2603061523437500e+03" cType="0" res="-9.9000000000000000e+01" rms="0.0000000000000000e+00" purity="4.9758094549179077e-01" nType="0">
        <Node pos="l" depth="1" NCoef="0" IVar="2" Cut="3.4255194664001465e-01" cType="1" res="-9.9000000000000000e+01" rms="0.0000000000000000e+00" purity="6.7720854282379150e-01" nType="0">
          <Node pos="l" depth="2" NCoef="0" IVar="-1" Cut="3.2857143878936768e+00" cType="1" res="-9.9000000000000000e+01" rms="0.0000000000000000e+00" purity="7.7226698398590088e-01" nType="1"/>
          <Node pos="r" depth="2" NCoef="0" IVar="12" Cut="1.7881749267578125e+03" cType="0" res="-9.9000000000000000e+01" rms="0.0000000000000000e+00" purity="5.5340927839279175e-01" nType="0">
            <Node pos="l" depth="3" NCoef="0" IVar="-1" Cut="3.0476191043853760e+00" cType="1" res="-9.9000000000000000e+01" rms="0.0000000000000000e+00" purity="6.3921111822128296e-01" nType="1"/>
            <Node pos="r" depth="3" NCoef="0" IVar="14" Cut="-1.0216287374496460e+00" cType="0" res="-9.9000000000000000e+01" rms="0.0000000000000000e+00" purity="4.6534261107444763e-01" nType="0">
              <Node pos="l" depth="4" NCoef="0" IVar="-1" Cut="0.0000000000000000e+00" cType="1" res="-9.9000000000000000e+01" rms="0.0000000000000000e+00" purity="5.0198775529861450e-01" nType="1"/>
              <Node pos="r" depth="4" NCoef="0" IVar="-1" Cut="0.0000000000000000e+00" cType="1" res="-9.9000000000000000e+01" rms="0.0000000000000000e+00" purity="3.1617158651351929e-01" nType="-1"/>
            </Node>
          </Node>
        </Node>
        <Node pos="r" depth="1" NCoef="0" IVar="2" Cut="3.2029059529304504e-01" cType="1" res="-9.9000000000000000e+01" rms="0.0000000000000000e+00" purity="3.6013749241828918e-01" nType="0">
          <Node pos="l" depth="2" NCoef="0" IVar="12" Cut="6.8117218017578125e+02" cType="0" res="-9.9000000000000000e+01" rms="0.0000000000000000e+00" purity="4.9099740386009216e-01" nType="0">
            <Node pos="l" depth="3" NCoef="0" IVar="5" Cut="3.1428570747375488e+00" cType="1" res="-9.9000000000000000e+01" rms="0.0000000000000000e+00" purity="5.4912012815475464e-01" nType="0">
              <Node pos="l" depth="4" NCoef="0" IVar="-1" Cut="0.0000000000000000e+00" cType="1" res="-9.9000000000000000e+01" rms="0.0000000000000000e+00" purity="6.1346417665481567e-01" nType="1"/>
              <Node pos="r" depth="4" NCoef="0" IVar="-1" Cut="0.0000000000000000e+00" cType="1" res="-9.9000000000000000e+01" rms="0.0000000000000000e+00" purity="3.8449564576148987e-01" nType="-1"/>
            </Node>
            <Node pos="r" depth="3" NCoef="0" IVar="-1" Cut="7.1409732103347778e-01" cType="0" res="-9.9000000000000000e+01" rms="0.0000000000000000e+00" purity="3.3768132328987122e-01" nType="-1"/>
          </Node>
          <Node pos="r" depth="2" NCoef="0" IVar="-1" Cut="8.6208093261718750e+02" cType="0" res="-9.9000000000000000e+01" rms="0.0000000000000000e+00" purity="2.7115562558174133e-01" nType="-1"/>
        </Node>
      </Node>
    </BinaryTree>
    <BinaryTree type="DecisionTree" boostWeight="1.5085584772924931e-01" itree="2">
      <Node pos="s" depth="0" NCoef="0" IVar="12" Cut="1.2710883789062500e+03" cType="0" res="-9.9000000000000000e+01" rms="0.0000000000000000e+00" purity="4.9684292078018188e-01" nType="0">
        <Node pos="l" depth="1" NCoef="0" IVar="2" Cut="3.4319329261779785e-01" cType="1" res="-9.9000000000000000e+01" rms="0.0000000000000000e+00" purity="6.7075794935226440e-01" nType="0">
          <Node pos="l" depth="2" NCoef="0" IVar="-1" Cut="3.2857143878936768e+00" cType="1" res="-9.9000000000000000e+01" rms="0.0000000000000000e+00" purity="7.7031087875366211e-01" nType="1"/>
          <Node pos="r" depth="2" NCoef="0" IVar="12" Cut="1.7926008300781250e+03" cType="0" res="-9.9000000000000000e+01" rms="0.0000000000000000e+00" purity="5.4137063026428223e-01" nType="0">
            <Node pos="l" depth="3" NCoef="0" IVar="5" Cut="4.1428570747375488e+00" cType="1" res="-9.9000000000000000e+01" rms="0.0000000000000000e+00" purity="6.4326828718185425e-01" nType="0">
              <Node pos="l" depth="4" NCoef="0" IVar="-1" Cut="0.0000000000000000e+00" cType="1" res="-9.9000000000000000e+01" rms="0.0000000000000000e+00" purity="6.8211925029754639e-01" nType="1"/>
              <Node pos="r" depth="4" NCoef="0" IVar="-1" Cut="0.0000000000000000e+00" cType="1" res="-9.9000000000000000e+01" rms="0.0000000000000000e+00" purity="3.9872744679450989e-01" nType="-1"/>
            </Node>
            <Node pos="r" depth="3" NCoef="0" IVar="-1" Cut="4.2857141494750977e+00" cType="1" res="-9.9000000000000000e+01" rms="0.0000000000000000e+00" purity="4.3560567498207092e-01" nType="-1"/>
          </Node>
        </Node>
        <Node pos="r" depth="1" NCoef="0" IVar="2" Cut="3.0689337849617004e-01" cType="1" res="-9.9000000000000000e+01" rms="0.0000000000000000e+00" purity="3.6594915390014648e-01" nType="0">
          <Node pos="l" depth="2" NCoef="0" IVar="12" Cut="1.0140567626953125e+03" cType="0" res="-9.9000000000000000e+01" rms="0.0000000000000000e+00" purity="4.9446472525596619e-01" nType="0">
            <Node pos="l" depth="3" NCoef="0" IVar="-1" Cut="2.3333332538604736e+00" cType="1" res="-9.9000000000000000e+01" rms="0.0000000000000000e+00" purity="6.3327389955520630e-01" nType="1"/>
            <Node pos="r" depth="3" NCoef="0" IVar="-1" Cut="3.2857143878936768e+00" cType="1" res="-9.9000000000000000e+01" rms="0.0000000000000000e+00" purity="4.4077339768409729e-01" nType="-1"/>
          </Node>
          <Node pos="r" depth="2" NCoef="0" IVar="-1" Cut="9.0391137695312500e+02" cType="0" res="-9.9000000000000000e+01" rms="0.0000000000000000e+00" purity="2.8924289345741272e-01" nType="-1"/>
        </Node>
      </Node>
    </BinaryTree>
    <BinaryTree type="DecisionTree" boostWeight="1.5256612611137191e-01" itree="3">
      <Node pos="s" depth="0" NCoef="0" IVar="12" Cut="1.1634169921875000e+03" cType="0" res="-9.9000000000000000e+01" rms="0.0000000000000000e+00" purity="4.9734991788864136e-01" nType="0">
        <Node pos="l" depth="1" NCoef="0" IVar="2" Cut="3.4319329261779785e-01" cType="1" res="-9.9000000000000000e+01" rms="0.0000000000000000e+00" purity="6.5009427070617676e-01" nType="0">
          <Node pos="l" depth="2" NCoef="0" IVar="12" Cut="1.7636633300781250e+03" cType="0" res="-9.9000000000000000e+01" rms="0.0000000000000000e+00" purity="7.4124968051910400e-01" nType="0">
            <Node pos="l" depth="3" NCoef="0" IVar="-1" Cut="3.2857143878936768e+00" cType="1" res="-9.9000000000000000e+01" rms="0.0000000000000000e+00" purity="8.2427781820297241e-01" nType="1"/>
            <Node pos="r" depth="3" NCoef="0" IVar="5" Cut="4.2857141494750977e+00" cType="1" res="-9.9000000000000000e+01" rms="0.0000000000000000e+00" purity="6.5050816535949707e-01" nType="0">
              <Node pos="l" depth="4" NCoef="0" IVar="-1" Cut="0.0000000000000000e+00" cType="1" res="-9.9000000000000000e+01" rms="0.0000000000000000e+00" purity="6.8274086713790894e-01" nType="1"/>
              <Node pos="r" depth="4" NCoef="0" IVar="-1" Cut="0.0000000000000000e+00" cType="1" res="-9.9000000000000000e+01" rms="0.0000000000000000e+00" purity="3.9322641491889954e-01" nType="-1"/>
            </Node>
          </Node>
          <Node pos="r" depth="2" NCoef="0" IVar="5" Cut="3.0476191043853760e+00" cType="1" res="-9.9000000000000000e+01" rms="0.0000000000000000e+00" purity="5.3752613067626953e-01" nType="0">
            <Node pos="l" depth="3" NCoef="0" IVar="14" Cut="1.1101602315902710e+00" cType="1" res="-9.9000000000000000e+01" rms="0.0000000000000000e+00" purity="6.0113292932510376e-01" nType="0">
              <Node pos="l" depth="4" NCoef="0" IVar="-1" Cut="0.0000000000000000e+00" cType="1" res="-9.9000000000000000e+01" rms="0.0000000000000000e+00" purity="6.4324277639389038e-01" nType="1"/>
              <Node pos="r" depth="4" NCoef="0" IVar="-1" Cut="0.0000000000000000e+00" cType="1" res="-9.9000000000000000e+01" rms="0.0000000000000000e+00" purity="3.9225700497627258e-01" nType="-1"/>
            </Node>
            <Node pos="r" depth="3" NCoef="0" IVar="12" Cut="1.9063162841796875e+03" cType="0" res="-9.9000000000000000e+01" rms="0.0000000000000000e+00" purity="4.2001485824584961e-01" nType="0">
              <Node pos="l" depth="4" NCoef="0" IVar="-1" Cut="0.0000000000000000e+00" cType="1" res="-9.9000000000000000e+01" rms="0.0000000000000000e+00" purity="5.1541459560394287e-01" nType="1"/>
              <Node pos="r" depth="4" NCoef="0" IVar="-1" Cut="0.0000000000000000e+00" cType="1" res="-9.9000000000000000e+01" rms="0.0000000000000000e+00" purity="3.6404362320899963e-01" nType="-1"/>
            </Node>
          </Node>
        </Node>
        <Node pos="r" depth="1" NCoef="0" IVar="2" Cut="3.3120337128639221e-01" cType="1" res="-9.9000000000000000e+01" rms="0.0000000000000000e+00" purity="3.5236033797264099e-01" nType="0">
          <Node pos="l" depth="2" NCoef="0" IVar="5" Cut="2.4285714626312256e+00" cType="1" res="-9.9000000000000000e+01" rms="0.0000000000000000e+00" purity="4.6853646636009216e-01" nType="0">
            <Node pos="l" depth="3" NCoef="0" IVar="9" Cut="7.6162105798721313e-01" cType="0" res="-9.9000000000000000e+01" rms="0.0000000000000000e+00" purity="5.6394654512405396e-01" nType="0">
              <Node pos="l" depth="4" NCoef="0" IVar="-1" Cut="0.0000000000000000e+00" cType="1" res="-9.9000000000000000e+01" rms="0.0000000000000000e+00" purity="6.7633032798767090e-01" nType="1"/>
              <Node pos="r" depth="4" NCoef="0" IVar="-1" Cut="0.0000000000000000e+00" cType="1" res="-9.9000000000000000e+01" rms="0.0000000000000000e+00" purity="4.9786883592605591e-01" nType="-1"/>
            </Node>
            <Node pos="r" depth="3" NCoef="0" IVar="-1" Cut="6.8948535156250000e+02" cType="0" res="-9.9000000000000000e+01" rms="0.0000000000000000e+00" purity="4.0549862384796143e-01" nType="-1"/>
          </Node>
          <Node pos="r" depth="2" NCoef="0" IVar="-1" Cut="9.4222021484375000e+02" cType="0" res="-9.9000000000000000e+01" rms="0.0000000000000000e+00" purity="2.5932976603507996e-01" nType="-1"/>
        </Node>
      </Node>
    </BinaryTree>
    <BinaryTree type="DecisionTree" boostWeight="1.3588450621456974e-01" itree="4">
      <Node pos="s" depth="0" NCoef="0" IVar="12" Cut="1.2710883789062500e+03" cType="0" res="-9.9000000000000000e+01" rms="0.0000000000000000e+00" purity="5.0477725267410278e-01" nType="0">
        <Node pos="l" depth="1" NCoef="0" IVar="2" Cut="2.7575987577438354e-01" cType="1" res="-9.9000000000000000e+01" rms="0.0000000000000000e+00" purity="6.5491962432861328e-01" nType="0">
          <Node pos="l" depth="2" NCoef="0" IVar="-1" Cut="3.2857143878936768e+00" cType="1" res="-9.9000000000000000e+01" rms="0.0000000000000000e+00" purity="7.9031211137771606e-01" nType="1"/>
          <Node pos="r" depth="2" NCoef="0" IVar="5" Cut="3.2857143878936768e+00" cType="1" res="-9.9000000000000000e+01" rms="0.0000000000000000e+00" purity="5.8251285552978516e-01" nType="0">
            <Node pos="l" depth="3" NCoef="0" IVar="-1" Cut="4.4550853967666626e-01" cType="1" res="-9.9000000000000000e+01" rms="0.0000000000000000e+00" purity="6.4335137605667114e-01" nType="1"/>
            <Node pos="r" depth="3" NCoef="0" IVar="12" Cut="2.2412761230468750e+03" cType="0" res="-9.9000000000000000e+01" rms="0.0000000000000000e+00" purity="4.6328070759773254e-01" nType="0">
              <Node pos="l" depth="4" NCoef="0" IVar="-1" Cut="0.0000000000000000e+00" cType="1" res="-9.9000000000000000e+01" rms="0.0000000000000000e+00" purity="5.9432065486907959e-01" nType="1"/>
              <Node pos="r" depth="4" NCoef="0" IVar="-1" Cut="0.0000000000000000e+00" cType="1" res="-9.9000000000000000e+01" rms="0.0000000000000000e+00" purity="4.1255751252174377e-01" nType="-1"/>
            </Node>
          </Node>
        </Node>
        <Node pos="r" depth="1" NCoef="0" IVar="2" Cut="2.9476806521415710e-01" cType="1" res="-9.9000000000000000e+01" rms="0.0000000000000000e+00" purity="3.9271169900894165e-01" nType="0">
          <Node pos="l" depth="2" NCoef="0" IVar="5" Cut="2.3809523582458496e+00" cType="1" res="-9.9000000000000000e+01" rms="0.0000000000000000e+00" purity="5.3292876482009888e-01" nType="0">
            <Node pos="l" depth="3" NCoef="0" IVar="-1" Cut="7.5718835449218750e+02" cType="0" res="-9.9000000000000000e+01" rms="0.0000000000000000e+00" purity="6.5229624509811401e-01" nType="1"/>
            <Node pos="r" depth="3" NCoef="0" IVar="-1" Cut="6.1015112304687500e+02" cType="0" res="-9.9000000000000000e+01" rms="0.0000000000000000e+00" purity="4.5112022757530212e-01" nType="-1"/>
          </Node>
          <Node pos="r" depth="2" NCoef="0" IVar="-1" Cut="9.7732391357421875e+02" cType="0" res="-9.9000000000000000e+01" rms="0.0000000000000000e+00" purity="3.2053476572036743e-01" nType="-1"/>
        </Node>
      </Node>
    </BinaryTree>
    <BinaryTree type="DecisionTree" boostWeight="1.3606416208514002e-01" itree="5">
      <Node pos="s" depth="0" NCoef="0" IVar="12" Cut="1.6403535156250000e+03" cType="0" res="-9.9000000000000000e+01" rms="0.0000000000000000e+00" purity="5.0786405801773071e-01" nType="0">
        <Node pos="l" depth="1" NCoef="0" IVar="2" Cut="3.8635197281837463e-01" cType="1" res="-9.9000000000000000e+01" rms="0.0000000000000000e+00" purity="6.9757640361785889e-01" nType="0">
          <Node pos="l" depth="2" NCoef="0" IVar="-1" Cut="3.2857143878936768e+00" cType="1" res="-9.9000000000000000e+01" rms="0.0000000000000000e+00" purity="7.6310014724731445e-01" nType="1"/>
          <Node pos="r" depth="2" NCoef="0" IVar="5" Cut="2.5238094329833984e+00" cType="1" res="-9.9000000000000000e+01" rms="0.0000000000000000e+00" purity="5.5948466062545776e-01" nType="0">
            <Node pos="l" depth="3" NCoef="0" IVar="-1" Cut="2.1107133789062500e+03" cType="0" res="-9.9000000000000000e+01" rms="0.0000000000000000e+00" purity="6.9146019220352173e-01" nType="1"/>
            <Node pos="r" depth="3" NCoef="0" IVar="3" Cut="5.0955410766601562e+02" cType="0" res="-9.9000000000000000e+01" rms="0.0000000000000000e+00" purity="4.9838665127754211e-01" nType="0">
              <Node pos="l" depth="4" NCoef="0" IVar="-1" Cut="0.0000000000000000e+00" cType="1" res="-9.9000000000000000e+01" rms="0.0000000000000000e+00" purity="5.7162117958068848e-01" nType="1"/>
              <Node pos="r" depth="4" NCoef="0" IVar="-1" Cut="0.0000000000000000e+00" cType="1" res="-9.9000000000000000e+01" rms="0.0000000000000000e+00" purity="4.0188646316528320e-01" nType="-1"/>
            </Node>
          </Node>
        </Node>
        <Node pos="r" depth="1" NCoef="0" IVar="2" Cut="3.7132710218429565e-01" cType="1" res="-9.9000000000000000e+01" rms="0.0000000000000000e+00" purity="4.3526530265808105e-01" nType="0">
          <Node pos="l" depth="2" NCoef="0" IVar="7" Cut="9.5341205596923828e-02" cType="0" res="-9.9000000000000000e+01" rms="0.0000000000000000e+00" purity="5.2356016635894775e-01" nType="0">
            <Node pos="l" depth="3" NCoef="0" IVar="12" Cut="7.1719635009765625e+02" cType="0" res="-9.9000000000000000e+01" rms="0.0000000000000000e+00" purity="5.6130737066268921e-01" nType="0">
              <Node pos="l" depth="4" NCoef="0" IVar="-1" Cut="0.0000000000000000e+00" cType="1" res="-9.9000000000000000e+01" rms="0.0000000000000000e+00" purity="6.0267853736877441e-01" nType="1"/>
              <Node pos="r" depth="4" NCoef="0" IVar="-1" Cut="0.0000000000000000e+00" cType="1" res="-9.9000000000000000e+01" rms="0.0000000000000000e+00" purity="4.3003538250923157e-01" nType="-1"/>
            </Node>
            <Node pos="r" depth="3" NCoef="0" IVar="-1" Cut="7.1403121948242188e-01" cType="0" res="-9.9000000000000000e+01" rms="0.0000000000000000e+00" purity="3.5230034589767456e-01" nType="-1"/>
          </Node>
          <Node pos="r" depth="2" NCoef="0" IVar="12" Cut="8.8016735839843750e+02" cType="0" res="-9.9000000000000000e+01" rms="0.0000000000000000e+00" purity="3.1277346611022949e-01" nType="0">
            <Node pos="l" depth="3" NCoef="0" IVar="3" Cut="9.1715972900390625e+02" cType="0" res="-9.9000000000000000e+01" rms="0.0000000000000000e+00" purity="4.0172988176345825e-01" nType="0">
              <Node pos="l" depth="4" NCoef="0" IVar="-1" Cut="0.0000000000000000e+00" cType="1" res="-9.9000000000000000e+01" rms="0.0000000000000000e+00" purity="5.9235286712646484e-01" nType="1"/>
              <Node pos="r" depth="4" NCoef="0" IVar="-1" Cut="0.0000000000000000e+00" cType="1" res="-9.9000000000000000e+01" rms="0.0000000000000000e+00" purity="3.7660199403762817e-01" nType="-1"/>
            </Node>
            <Node pos="r" depth="3" NCoef="0" IVar="-1" Cut="2.3811575770378113e-01" cType="0" res="-9.9000000000000000e+01" rms="0.0000000000000000e+00" purity="2.1684204041957855e-01" nType="-1"/>
          </Node>
        </Node>
      </Node>
    </BinaryTree>
    <BinaryTree type="DecisionTree" boostWeight="1.1831815598811826e-01" itree="6">
      <Node pos="s" depth="0" NCoef="0" IVar="12" Cut="1.6566547851562500e+03" cType="0" res="-9.9000000000000000e+01" rms="0.0000000000000000e+00" purity="5.0479131937026978e-01" nType="0">
        <Node pos="l" depth="1" NCoef="0" IVar="2" Cut="2.7340957522392273e-01" cType="1" res="-9.9000000000000000e+01" rms="0.0000000000000000e+00" purity="6.9817292690277100e-01" nType="0">
          <Node pos="l" depth="2" NCoef="0" IVar="-1" Cut="3.1428570747375488e+00" cType="1" res="-9.9000000000000000e+01" rms="0.0000000000000000e+00" purity="8.1970858573913574e-01" nType="1"/>
          <Node pos="r" depth="2" NCoef="0" IVar="4" Cut="1.5400623083114624e+00" cType="1" res="-9.9000000000000000e+01" rms="0.0000000000000000e+00" purity="6.3234269618988037e-01" nType="0">
            <Node pos="l" depth="3" NCoef="0" IVar="-1" Cut="2.4285714626312256e+00" cType="1" res="-9.9000000000000000e+01" rms="0.0000000000000000e+00" purity="6.6527640819549561e-01" nType="1"/>
            <Node pos="r" depth="3" NCoef="0" IVar="13" Cut="6.6842213273048401e-02" cType="1" res="-9.9000000000000000e+01" rms="0.0000000000000000e+00" purity="4.0322852134704590e-01" nType="0">
              <Node pos="l" depth="4" NCoef="0" IVar="-1" Cut="0.0000000000000000e+00" cType="1" res="-9.9000000000000000e+01" rms="0.0000000000000000e+00" purity="5.2060157060623169e-01" nType="1"/>
              <Node pos="r" depth="4" NCoef="0" IVar="-1" Cut="0.0000000000000000e+00" cType="1" res="-9.9000000000000000e+01" rms="0.0000000000000000e+00" purity="2.8473788499832153e-01" nType="-1"/>
            </Node>
          </Node>
        </Node>
        <Node pos="r" depth="1" NCoef="0" IVar="2" Cut="3.9685201644897461e-01" cType="1" res="-9.9000000000000000e+01" rms="0.0000000000000000e+00" purity="4.3314933776855469e-01" nType="0">
          <Node pos="l" depth="2" NCoef="0" IVar="2" Cut="2.5102055072784424e-01" cType="1" res="-9.9000000000000000e+01" rms="0.0000000000000000e+00" purity="5.0405329465866089e-01" nType="0">
            <Node pos="l" depth="3" NCoef="0" IVar="-1" Cut="5.2366423606872559e-01" cType="0" res="-9.9000000000000000e+01" rms="0.0000000000000000e+00" purity="6.0721492767333984e-01" nType="1"/>
            <Node pos="r" depth="3" NCoef="0" IVar="-1" Cut="4.7702323645353317e-02" cType="0" res="-9.9000000000000000e+01" rms="0.0000000000000000e+00" purity="4.4865584373474121e-01" nType="-1"/>
          </Node>
          <Node pos="r" depth="2" NCoef="0" IVar="12" Cut="1.1059190673828125e+03" cType="0" res="-9.9000000000000000e+01" rms="0.0000000000000000e+00" purity="2.9822820425033569e-01" nType="0">
            <Node pos="l" depth="3" NCoef="0" IVar="10" Cut="4.1869478225708008e+00" cType="1" res="-9.9000000000000000e+01" rms="0.0000000000000000e+00" purity="4.1080152988433838e-01" nType="0">
              <Node pos="l" depth="4" NCoef="0" IVar="-1" Cut="0.0000000000000000e+00" cType="1" res="-9.9000000000000000e+01" rms="0.0000000000000000e+00" purity="5.1328861713409424e-01" nType="1"/>
              <Node pos="r" depth="4" NCoef="0" IVar="-1" Cut="0.0000000000000000e+00" cType="1" res="-9.9000000000000000e+01" rms="0.0000000000000000e+00" purity="3.4786638617515564e-01" nType="-1"/>
            </Node>
            <Node pos="r" depth="3" NCoef="0" IVar="-1" Cut="6.4437365722656250e+02" cType="0" res="-9.9000000000000000e+01" rms="0.0000000000000000e+00" purity="2.4416635930538177e-01" nType="-1"/>
          </Node>
        </Node>
      </Node>
    </BinaryTree>
    <BinaryTree type="DecisionTree" boostWeight="1.1283927521749477e-01" itree="7">
      <Node pos="s" depth="0" NCoef="0" IVar="12" Cut="1.2602673339843750e+03" cType="0" res="-9.9000000000000000e+01" rms="0.0000000000000000e+00" purity="5.1121467351913452e-01" nType="0">
        <Node pos="l" depth="1" NCoef="0" IVar="2" Cut="2.7199652791023254e-01" cType="1" res="-9.9000000000000000e+01" rms="0.0000000000000000e+00" purity="6.3313627243041992e-01" nType="0">
          <Node pos="l" depth="2" NCoef="0" IVar="-1" Cut="3.1428570747375488e+00" cType="1" res="-9.9000000000000000e+01" rms="0.0000000000000000e+00" purity="7.5737172365188599e-01" nType="1"/>
          <Node pos="r" depth="2" NCoef="0" IVar="5" Cut="2.4761905670166016e+00" cType="1" res="-9.9000000000000000e+01" rms="0.0000000000000000e+00" purity="5.6992709636688232e-01" nType="0">
            <Node pos="l" depth="3" NCoef="0" IVar="-1" Cut="4.1760769486427307e-01" cType="1" res="-9.9000000000000000e+01" rms="0.0000000000000000e+00" purity="6.7726278305053711e-01" nType="1"/>
            <Node pos="r" depth="3" NCoef="0" IVar="4" Cut="-1.3078730106353760e+00" cType="0" res="-9.9000000000000000e+01" rms="0.0000000000000000e+00" purity="5.1612520217895508e-01" nType="0">
              <Node pos="l" depth="4" NCoef="0" IVar="-1" Cut="0.0000000000000000e+00" cType="1" res="-9.9000000000000000e+01" rms="0.0000000000000000e+00" purity="5.4956096410751343e-01" nType="1"/>
              <Node pos="r" depth="4" NCoef="0" IVar="-1" Cut="0.0000000000000000e+00" cType="1" res="-9.9000000000000000e+01" rms="0.0000000000000000e+00" purity="3.5694247484207153e-01" nType="-1"/>
            </Node>
          </Node>
        </Node>
        <Node pos="r" depth="1" NCoef="0" IVar="2" Cut="3.0689170956611633e-01" cType="1" res="-9.9000000000000000e+01" rms="0.0000000000000000e+00" purity="4.1639190912246704e-01" nType="0">
          <Node pos="l" depth="2" NCoef="0" IVar="7" Cut="9.5238126814365387e-02" cType="0" res="-9.9000000000000000e+01" rms="0.0000000000000000e+00" purity="5.2394324541091919e-01" nType="0">
            <Node pos="l" depth="3" NCoef="0" IVar="-1" Cut="2.3809523582458496e+00" cType="1" res="-9.9000000000000000e+01" rms="0.0000000000000000e+00" purity="5.6195366382598877e-01" nType="1"/>
            <Node pos="r" depth="3" NCoef="0" IVar="-1" Cut="7.1752191162109375e+02" cType="0" res="-9.9000000000000000e+01" rms="0.0000000000000000e+00" purity="3.7313657999038696e-01" nType="-1"/>
          </Node>
          <Node pos="r" depth="2" NCoef="0" IVar="12" Cut="6.8104028320312500e+02" cType="0" res="-9.9000000000000000e+01" rms="0.0000000000000000e+00" purity="3.5070869326591492e-01" nType="0">
            <Node pos="l" depth="3" NCoef="0" IVar="9" Cut="8.5714352130889893e-01" cType="0" res="-9.9000000000000000e+01" rms="0.0000000000000000e+00" purity="3.9819508790969849e-01" nType="0">
              <Node pos="l" depth="4" NCoef="0" IVar="-1" Cut="0.0000000000000000e+00" cType="1" res="-9.9000000000000000e+01" rms="0.0000000000000000e+00" purity="5.1106965541839600e-01" nType="1"/>
              <Node pos="r" depth="4" NCoef="0" IVar="-1" Cut="0.0000000000000000e+00" cType="1" res="-9.9000000000000000e+01" rms="0.0000000000000000e+00" purity="3.5830256342887878e-01" nType="-1"/>
            </Node>
            <Node pos="r" depth="3" NCoef="0" IVar="-1" Cut="6.1885213851928711e-01" cType="0" res="-9.9000000000000000e+01" rms="0.0000000000000000e+00" purity="2.3053911328315735e-01" nType="-1"/>
          </Node>
        </Node>
      </Node>
    </BinaryTree>
    <BinaryTree type="DecisionTree" boostWeight="1.1461030559450754e-01" itree="8">
      <Node pos="s" depth="0" NCoef="0" IVar="12" Cut="1.1634169921875000e+03" cType="0" res="-9.9000000000000000e+01" rms="0.0000000000000000e+00" purity="5.0212889909744263e-01" nType="0">
        <Node pos="l" depth="1" NCoef="0" IVar="2" Cut="2.9286959767341614e-01" cType="1" res="-9.9000000000000000e+01" rms="0.0000000000000000e+00" purity="6.1196517944335938e-01" nType="0">
          <Node pos="l" depth="2" NCoef="0" IVar="-1" Cut="3.3333332538604736e+00" cType="1" res="-9.9000000000000000e+01" rms="0.0000000000000000e+00" purity="7.2831815481185913e-01" nType="1"/>
          <Node pos="r" depth="2" NCoef="0" IVar="5" Cut="3.2857143878936768e+00" cType="1" res="-9.9000000000000000e+01" rms="0.0000000000000000e+00" purity="5.3571802377700806e-01" nType="0">
            <Node pos="l" depth="3" NCoef="0" IVar="2" Cut="4.3978857994079590e-01" cType="1" res="-9.9000000000000000e+01" rms="0.0000000000000000e+00" purity="5.9040260314941406e-01" nType="0">
              <Node pos="l" depth="4" NCoef="0" IVar="-1" Cut="0.0000000000000000e+00" cType="1" res="-9.9000000000000000e+01" rms="0.0000000000000000e+00" purity="6.4610564708709717e-01" nType="1"/>
              <Node pos="r" depth="4" NCoef="0" IVar="-1" Cut="0.0000000000000000e+00" cType="1" res="-9.9000000000000000e+01" rms="0.0000000000000000e+00" purity="4.7897145152091980e-01" nType="-1"/>
            </Node>
            <Node pos="r" depth="3" NCoef="0" IVar="-1" Cut="8.2910156250000000e-01" cType="1" res="-9.9000000000000000e+01" rms="0.0000000000000000e+00" purity="4.3157032132148743e-01" nType="-1"/>
          </Node>
        </Node>
        <Node pos="r" depth="1" NCoef="0" IVar="2" Cut="3.9685201644897461e-01" cType="1" res="-9.9000000000000000e+01" rms="0.0000000000000000e+00" purity="3.9677768945693970e-01" nType="0">
          <Node pos="l" depth="2" NCoef="0" IVar="5" Cut="3.1428570747375488e+00" cType="1" res="-9.9000000000000000e+01" rms="0.0000000000000000e+00" purity="4.5725470781326294e-01" nType="0">
            <Node pos="l" depth="3" NCoef="0" IVar="12" Cut="6.2638372802734375e+02" cType="0" res="-9.9000000000000000e+01" rms="0.0000000000000000e+00" purity="5.0128066539764404e-01" nType="0">
              <Node pos="l" depth="4" NCoef="0" IVar="-1" Cut="0.0000000000000000e+00" cType="1" res="-9.9000000000000000e+01" rms="0.0000000000000000e+00" purity="5.4072743654251099e-01" nType="1"/>
              <Node pos="r" depth="4" NCoef="0" IVar="-1" Cut="0.0000000000000000e+00" cType="1" res="-9.9000000000000000e+01" rms="0.0000000000000000e+00" purity="3.5441642999649048e-01" nType="-1"/>
            </Node>
            <Node pos="r" depth="3" NCoef="0" IVar="-1" Cut="5.2386379241943359e-01" cType="0" res="-9.9000000000000000e+01" rms="0.0000000000000000e+00" purity="3.3711406588554382e-01" nType="-1"/>
          </Node>
          <Node pos="r" depth="2" NCoef="0" IVar="-1" Cut="1.4288023114204407e-01" cType="0" res="-9.9000000000000000e+01" rms="0.0000000000000000e+00" purity="2.9004150629043579e-01" nType="-1"/>
        </Node>
      </Node>
    </BinaryTree>
    <BinaryTree type="DecisionTree" boostWeight="1.1038865054332599e-01" itree="9">
      <Node pos="s" depth="0" NCoef="0" IVar="12" Cut="1.4951519775390625e+03" cType="0" res="-9.9000000000000000e+01" rms="0.0000000000000000e+00" purity="5.0960725545883179e-01" nType="0">
        <Node pos="l" depth="1" NCoef="0" IVar="2" Cut="3.3058688044548035e-01" cType="1" res="-9.9000000000000000e+01" rms="0.0000000000000000e+00" purity="6.5577673912048340e-01" nType="0">
          <Node pos="l" depth="2" NCoef="0" IVar="-1" Cut="3.2857143878936768e+00" cType="1" res="-9.9000000000000000e+01" rms="0.0000000000000000e+00" purity="7.4431377649307251e-01" nType="1"/>
          <Node pos="r" depth="2" NCoef="0" IVar="4" Cut="1.5372953414916992e+00" cType="1" res="-9.9000000000000000e+01" rms="0.0000000000000000e+00" purity="5.6402623653411865e-01" nType="0">
            <Node pos="l" depth="3" NCoef="0" IVar="14" Cut="-1.6504964828491211e+00" cType="0" res="-9.9000000000000000e+01" rms="0.0000000000000000e+00" purity="5.9482711553573608e-01" nType="0">
              <Node pos="l" depth="4" NCoef="0" IVar="-1" Cut="0.0000000000000000e+00" cType="1" res="-9.9000000000000000e+01" rms="0.0000000000000000e+00" purity="6.2036365270614624e-01" nType="1"/>
              <Node pos="r" depth="4" NCoef="0" IVar="-1" Cut="0.0000000000000000e+00" cType="1" res="-9.9000000000000000e+01" rms="0.0000000000000000e+00" purity="3.3889296650886536e-01" nType="-1"/>
            </Node>
            <Node pos="r" depth="3" NCoef="0" IVar="-1" Cut="-2.0633370876312256e+00" cType="0" res="-9.9000000000000000e+01" rms="0.0000000000000000e+00" purity="3.6519008874893188e-01" nType="-1"/>
          </Node>
        </Node>
        <Node pos="r" depth="1" NCoef="0" IVar="2" Cut="3.5884943604469299e-01" cType="1" res="-9.9000000000000000e+01" rms="0.0000000000000000e+00" purity="4.3892318010330200e-01" nType="0">
          <Node pos="l" depth="2" NCoef="0" IVar="5" Cut="2.3809523582458496e+00" cType="1" res="-9.9000000000000000e+01" rms="0.0000000000000000e+00" purity="5.0451129674911499e-01" nType="0">
            <Node pos="l" depth="3" NCoef="0" IVar="-1" Cut="8.7922839355468750e+02" cType="0" res="-9.9000000000000000e+01" rms="0.0000000000000000e+00" purity="5.9868913888931274e-01" nType="1"/>
            <Node pos="r" depth="3" NCoef="0" IVar="9" Cut="7.6158148050308228e-01" cType="0" res="-9.9000000000000000e+01" rms="0.0000000000000000e+00" purity="4.4791194796562195e-01" nType="0">
              <Node pos="l" depth="4" NCoef="0" IVar="-1" Cut="0.0000000000000000e+00" cType="1" res="-9.9000000000000000e+01" rms="0.0000000000000000e+00" purity="5.3583443164825439e-01" nType="1"/>
              <Node pos="r" depth="4" NCoef="0" IVar="-1" Cut="0.0000000000000000e+00" cType="1" res="-9.9000000000000000e+01" rms="0.0000000000000000e+00" purity="4.0419951081275940e-01" nType="-1"/>
            </Node>
          </Node>
          <Node pos="r" depth="2" NCoef="0" IVar="-1" Cut="1.0212412719726562e+03" cType="0" res="-9.9000000000000000e+01" rms="0.0000000000000000e+00" purity="3.5971412062644958e-01" nType="-1"/>
        </Node>
      </Node>
    </BinaryTree>
    <BinaryTree type="DecisionTree" boostWeight="9.9304269624209629e-02" itree="10">
      <Node pos="s" depth="0" NCoef="0" IVar="12" Cut="8.8556921386718750e+02" cType="0" res="-9.9000000000000000e+01" rms="0.0000000000000000e+00" purity="5.0327110290527344e-01" nType="0">
        <Node pos="l" depth="1" NCoef="0" IVar="2" Cut="2.6924878358840942e-01" cType="1" res="-9.9000000000000000e+01" rms="0.0000000000000000e+00" purity="5.7026112079620361e-01" nType="0">
          <Node pos="l" depth="2" NCoef="0" IVar="12" Cut="1.6199998779296875e+03" cType="0" res="-9.9000000000000000e+01" rms="0.0000000000000000e+00" purity="6.8576836585998535e-01" nType="0">
            <Node pos="l" depth="3" NCoef="0" IVar="-1" Cut="3.2857143878936768e+00" cType="1" res="-9.9000000000000000e+01" rms="0.0000000000000000e+00" purity="7.8489154577255249e-01" nType="1"/>
            <Node pos="r" depth="3" NCoef="0" IVar="10" Cut="4.6852273941040039e+00" cType="1" res="-9.9000000000000000e+01" rms="0.0000000000000000e+00" purity="6.0521751642227173e-01" nType="0">
              <Node pos="l" depth="4" NCoef="0" IVar="-1" Cut="0.0000000000000000e+00" cType="1" res="-9.9000000000000000e+01" rms="0.0000000000000000e+00" purity="6.9508957862854004e-01" nType="1"/>
              <Node pos="r" depth="4" NCoef="0" IVar="-1" Cut="0.0000000000000000e+00" cType="1" res="-9.9000000000000000e+01" rms="0.0000000000000000e+00" purity="4.4627034664154053e-01" nType="-1"/>
            </Node>
          </Node>
          <Node pos="r" depth="2" NCoef="0" IVar="12" Cut="2.2810793457031250e+03" cType="0" res="-9.9000000000000000e+01" rms="0.0000000000000000e+00" purity="5.2028191089630127e-01" nType="0">
            <Node pos="l" depth="3" NCoef="0" IVar="-1" Cut="3.2857143878936768e+00" cType="1" res="-9.9000000000000000e+01" rms="0.0000000000000000e+00" purity="6.7105108499526978e-01" nType="1"/>
            <Node pos="r" depth="3" NCoef="0" IVar="14" Cut="-1.2686789035797119e+00" cType="0" res="-9.9000000000000000e+01" rms="0.0000000000000000e+00" purity="4.8937371373176575e-01" nType="0">
              <Node pos="l" depth="4" NCoef="0" IVar="-1" Cut="0.0000000000000000e+00" cType="1" res="-9.9000000000000000e+01" rms="0.0000000000000000e+00" purity="5.1345163583755493e-01" nType="1"/>
              <Node pos="r" depth="4" NCoef="0" IVar="-1" Cut="0.0000000000000000e+00" cType="1" res="-9.9000000000000000e+01" rms="0.0000000000000000e+00" purity="3.2523214817047119e-01" nType="-1"/>
            </Node>
          </Node>
        </Node>
        <Node pos="r" depth="1" NCoef="0" IVar="2" Cut="3.3514162898063660e-01" cType="1" res="-9.9000000000000000e+01" rms="0.0000000000000000e+00" purity="3.6485648155212402e-01" nType="0">
          <Node pos="l" depth="2" NCoef="0" IVar="7" Cut="7.1393692493438721e-01" cType="0" res="-9.9000000000000000e+01" rms="0.0000000000000000e+00" purity="4.4354236125946045e-01" nType="0">
            <Node pos="l" depth="3" NCoef="0" IVar="9" Cut="3.3343791961669922e-01" cType="0" res="-9.9000000000000000e+01" rms="0.0000000000000000e+00" purity="5.3590148687362671e-01" nType="0">
              <Node pos="l" depth="4" NCoef="0" IVar="-1" Cut="0.0000000000000000e+00" cType="1" res="-9.9000000000000000e+01" rms="0.0000000000000000e+00" purity="5.9347164630889893e-01" nType="1"/>
              <Node pos="r" depth="4" NCoef="0" IVar="-1" Cut="0.0000000000000000e+00" cType="1" res="-9.9000000000000000e+01" rms="0.0000000000000000e+00" purity="4.2509818077087402e-01" nType="-1"/>
            </Node>
            <Node pos="r" depth="3" NCoef="0" IVar="-1" Cut="5.0388085937500000e+02" cType="0" res="-9.9000000000000000e+01" rms="0.0000000000000000e+00" purity="3.6645641922950745e-01" nType="-1"/>
          </Node>
          <Node pos="r" depth="2" NCoef="0" IVar="-1" Cut="3.3344498276710510e-01" cType="0" res="-9.9000000000000000e+01" rms="0.0000000000000000e+00" purity="2.9764536023139954e-01" nType="-1"/>
        </Node>
      </Node>
    </BinaryTree>
    <BinaryTree type="DecisionTree" boostWeight="9.7771796745505277e-02" itree="11">
      <Node pos="s" depth="0" NCoef="0" IVar="12" Cut="1.6566949462890625e+03" cType="0" res="-9.9000000000000000e+01" rms="0.0000000000000000e+00" purity="4.9739593267440796e-01" nType="0">
        <Node pos="l" depth="1" NCoef="0" IVar="2" Cut="2.9992148280143738e-01" cType="1" res="-9.9000000000000000e+01" rms="0.0000000000000000e+00" purity="6.6052222251892090e-01" nType="0">
          <Node pos="l" depth="2" NCoef="0" IVar="-1" Cut="3.2857143878936768e+00" cType="1" res="-9.9000000000000000e+01" rms="0.0000000000000000e+00" purity="7.6569175720214844e-01" nType="1"/>
          <Node pos="r" depth="2" NCoef="0" IVar="5" Cut="2.5238094329833984e+00" cType="1" res="-9.9000000000000000e+01" rms="0.0000000000000000e+00" purity="5.8395856618881226e-01" nType="0">
            <Node pos="l" depth="3" NCoef="0" IVar="-1" Cut="9.2531585693359375e-01" cType="1" res="-9.9000000000000000e+01" rms="0.0000000000000000e+00" purity="7.0303899049758911e-01" nType="1"/>
            <Node pos="r" depth="3" NCoef="0" IVar="5" Cut="4.4285712242126465e+00" cType="1" res="-9.9000000000000000e+01" rms="0.0000000000000000e+00" purity="5.2260518074035645e-01" nType="0">
              <Node pos="l" depth="4" NCoef="0" IVar="-1" Cut="0.0000000000000000e+00" cType="1" res="-9.9000000000000000e+01" rms="0.0000000000000000e+00" purity="5.6290483474731445e-01" nType="1"/>
              <Node pos="r" depth="4" NCoef="0" IVar="-1" Cut="0.0000000000000000e+00" cType="1" res="-9.9000000000000000e+01" rms="0.0000000000000000e+00" purity="3.7273395061492920e-01" nType="-1"/>
            </Node>
          </Node>
        </Node>
        <Node pos="r" depth="1" NCoef="0" IVar="2" Cut="3.9684921503067017e-01" cType="1" res="-9.9000000000000000e+01" rms="0.0000000000000000e+00" purity="4.3882411718368530e-01" nType="0">
          <Node pos="l" depth="2" NCoef="0" IVar="7" Cut="3.8095238804817200e-01" cType="0" res="-9.9000000000000000e+01" rms="0.0000000000000000e+00" purity="4.8604547977447510e-01" nType="0">
            <Node pos="l" depth="3" NCoef="0" IVar="12" Cut="1.0508081054687500e+03" cType="0" res="-9.9000000000000000e+01" rms="0.0000000000000000e+00" purity="5.3674757480621338e-01" nType="0">
              <Node pos="l" depth="4" NCoef="0" IVar="-1" Cut="0.0000000000000000e+00" cType="1" res="-9.9000000000000000e+01" rms="0.0000000000000000e+00" purity="6.0553741455078125e-01" nType="1"/>
              <Node pos="r" depth="4" NCoef="0" IVar="-1" Cut="0.0000000000000000e+00" cType="1" res="-9.9000000000000000e+01" rms="0.0000000000000000e+00" purity="4.8594158887863159e-01" nType="-1"/>
            </Node>
            <Node pos="r" depth="3" NCoef="0" IVar="-1" Cut="3.2857143878936768e+00" cType="1" res="-9.9000000000000000e+01" rms="0.0000000000000000e+00" purity="3.9994215965270996e-01" nType="-1"/>
          </Node>
          <Node pos="r" depth="2" NCoef="0" IVar="-1" Cut="8.8562896728515625e+02" cType="0" res="-9.9000000000000000e+01" rms="0.0000000000000000e+00" purity="3.5130652785301208e-01" nType="-1"/>
        </Node>
      </Node>
    </BinaryTree>
    <BinaryTree type="DecisionTree" boostWeight="1.0065557433266202e-01" itree="12">
      <Node pos="s" depth="0" NCoef="0" IVar="2" Cut="2.9149839282035828e-01" cType="1" res="-9.9000000000000000e+01" rms="0.0000000000000000e+00" purity="5.0683611631393433e-01" nType="0">
        <Node pos="l" depth="1" NCoef="0" IVar="12" Cut="1.4951879882812500e+03" cType="0" res="-9.9000000000000000e+01" rms="0.0000000000000000e+00" purity="6.1461549997329712e-01" nType="0">
          <Node pos="l" depth="2" NCoef="0" IVar="5" Cut="4.1428570747375488e+00" cType="1" res="-9.9000000000000000e+01" rms="0.0000000000000000e+00" purity="7.3653250932693481e-01" nType="0">
            <Node pos="l" depth="3" NCoef="0" IVar="-1" Cut="2.3483603515625000e+03" cType="0" res="-9.9000000000000000e+01" rms="0.0000000000000000e+00" purity="7.7438235282897949e-01" nType="1"/>
            <Node pos="r" depth="3" NCoef="0" IVar="-1" Cut="0.0000000000000000e+00" cType="1" res="-9.9000000000000000e+01" rms="0.0000000000000000e+00" purity="4.7588434815406799e-01" nType="-1"/>
          </Node>
          <Node pos="r" depth="2" NCoef="0" IVar="9" Cut="2.8575649857521057e-01" cType="0" res="-9.9000000000000000e+01" rms="0.0000000000000000e+00" purity="5.5085331201553345e-01" nType="0">
            <Node pos="l" depth="3" NCoef="0" IVar="-1" Cut="2.3809523582458496e+00" cType="1" res="-9.9000000000000000e+01" rms="0.0000000000000000e+00" purity="5.9701693058013916e-01" nType="1"/>
            <Node pos="r" depth="3" NCoef="0" IVar="7" Cut="8.5714286565780640e-01" cType="0" res="-9.9000000000000000e+01" rms="0.0000000000000000e+00" purity="4.4749751687049866e-01" nType="0">
              <Node pos="l" depth="4" NCoef="0" IVar="-1" Cut="0.0000000000000000e+00" cType="1" res="-9.9000000000000000e+01" rms="0.0000000000000000e+00" purity="5.2965301275253296e-01" nType="1"/>
              <Node pos="r" depth="4" NCoef="0" IVar="-1" Cut="0.0000000000000000e+00" cType="1" res="-9.9000000000000000e+01" rms="0.0000000000000000e+00" purity="4.0317836403846741e-01" nType="-1"/>
            </Node>
          </Node>
        </Node>
        <Node pos="r" depth="1" NCoef="0" IVar="12" Cut="1.1018527832031250e+03" cType="0" res="-9.9000000000000000e+01" rms="0.0000000000000000e+00" purity="4.4791567325592041e-01" nType="0">
          <Node pos="l" depth="2" NCoef="0" IVar="4" Cut="-1.5476888418197632e+00" cType="0" res="-9.9000000000000000e+01" rms="0.0000000000000000e+00" purity="5.2253305912017822e-01" nType="0">
            <Node pos="l" depth="3" NCoef="0" IVar="4" Cut="1.1491699218750000e+00" cType="1" res="-9.9000000000000000e+01" rms="0.0000000000000000e+00" purity="5.4707878828048706e-01" nType="0">
              <Node pos="l" depth="4" NCoef="0" IVar="-1" Cut="0.0000000000000000e+00" cType="1" res="-9.9000000000000000e+01" rms="0.0000000000000000e+00" purity="5.8918392658233643e-01" nType="1"/>
              <Node pos="r" depth="4" NCoef="0" IVar="-1" Cut="0.0000000000000000e+00" cType="1" res="-9.9000000000000000e+01" rms="0.0000000000000000e+00" purity="4.0702059864997864e-01" nType="-1"/>
            </Node>
            <Node pos="r" depth="3" NCoef="0" IVar="-1" Cut="-2.7522206306457520e-01" cType="0" res="-9.9000000000000000e+01" rms="0.0000000000000000e+00" purity="3.4057602286338806e-01" nType="-1"/>
          </Node>
          <Node pos="r" depth="2" NCoef="0" IVar="-1" Cut="4.3919780850410461e-01" cType="1" res="-9.9000000000000000e+01" rms="0.0000000000000000e+00" purity="3.7243831157684326e-01" nType="-1"/>
        </Node>
      </Node>
    </BinaryTree>
    <BinaryTree type="DecisionTree" boostWeight="9.3730817281897805e-02" itree="13">
      <Node pos="s" depth="0" NCoef="0" IVar="12" Cut="1.4343848876953125e+03" cType="0" res="-9.9000000000000000e+01" rms="0.0000000000000000e+00" purity="5.0628203153610229e-01" nType="0">
        <Node pos="l" depth="1" NCoef="0" IVar="5" Cut="3.0476191043853760e+00" cType="1" res="-9.9000000000000000e+01" rms="0.0000000000000000e+00" purity="6.1925137042999268e-01" nType="0">
          <Node pos="l" depth="2" NCoef="0" IVar="2" Cut="4.2808529734611511e-01" cType="1" res="-9.9000000000000000e+01" rms="0.0000000000000000e+00" purity="6.8035978078842163e-01" nType="0">
            <Node pos="l" depth="3" NCoef="0" IVar="-1" Cut="2.2283208007812500e+03" cType="0" res="-9.9000000000000000e+01" rms="0.0000000000000000e+00" purity="7.2661793231964111e-01" nType="1"/>
            <Node pos="r" depth="3" NCoef="0" IVar="14" Cut="1.0323169231414795e+00" cType="1" res="-9.9000000000000000e+01" rms="0.0000000000000000e+00" purity="5.1148086786270142e-01" nType="0">
              <Node pos="l" depth="4" NCoef="0" IVar="-1" Cut="0.0000000000000000e+00" cType="1" res="-9.9000000000000000e+01" rms="0.0000000000000000e+00" purity="5.7194536924362183e-01" nType="1"/>
              <Node pos="r" depth="4" NCoef="0" IVar="-1" Cut="0.0000000000000000e+00" cType="1" res="-9.9000000000000000e+01" rms="0.0000000000000000e+00" purity="2.7700716257095337e-01" nType="-1"/>
            </Node>
          </Node>
          <Node pos="r" depth="2" NCoef="0" IVar="2" Cut="2.5174877047538757e-01" cType="1" res="-9.9000000000000000e+01" rms="0.0000000000000000e+00" purity="4.9093416333198547e-01" nType="0">
            <Node pos="l" depth="3" NCoef="0" IVar="-1" Cut="0.0000000000000000e+00" cType="1" res="-9.9000000000000000e+01" rms="0.0000000000000000e+00" purity="6.3047617673873901e-01" nType="1"/>
            <Node pos="r" depth="3" NCoef="0" IVar="5" Cut="4.4285712242126465e+00" cType="1" res="-9.9000000000000000e+01" rms="0.0000000000000000e+00" purity="4.4730252027511597e-01" nType="0">
              <Node pos="l" depth="4" NCoef="0" IVar="-1" Cut="0.0000000000000000e+00" cType="1" res="-9.9000000000000000e+01" rms="0.0000000000000000e+00" purity="5.0342464447021484e-01" nType="1"/>
              <Node pos="r" depth="4" NCoef="0" IVar="-1" Cut="0.0000000000000000e+00" cType="1" res="-9.9000000000000000e+01" rms="0.0000000000000000e+00" purity="3.5919186472892761e-01" nType="-1"/>
            </Node>
          </Node>
        </Node>
        <Node pos="r" depth="1" NCoef="0" IVar="2" Cut="3.8288339972496033e-01" cType="1" res="-9.9000000000000000e+01" rms="0.0000000000000000e+00" purity="4.4724342226982117e-01" nType="0">
          <Node pos="l" depth="2" NCoef="0" IVar="5" Cut="3.2857143878936768e+00" cType="1" res="-9.9000000000000000e+01" rms="0.0000000000000000e+00" purity="4.9640756845474243e-01" nType="0">
            <Node pos="l" depth="3" NCoef="0" IVar="-1" Cut="9.5191675424575806e-01" cType="0" res="-9.9000000000000000e+01" rms="0.0000000000000000e+00" purity="5.3612309694290161e-01" nType="1"/>
            <Node pos="r" depth="3" NCoef="0" IVar="-1" Cut="4.3333334922790527e+00" cType="1" res="-9.9000000000000000e+01" rms="0.0000000000000000e+00" purity="3.9365893602371216e-01" nType="-1"/>
          </Node>
          <Node pos="r" depth="2" NCoef="0" IVar="9" Cut="6.6667544841766357e-01" cType="0" res="-9.9000000000000000e+01" rms="0.0000000000000000e+00" purity="3.6751401424407959e-01" nType="0">
            <Node pos="l" depth="3" NCoef="0" IVar="3" Cut="9.1977398681640625e+02" cType="0" res="-9.9000000000000000e+01" rms="0.0000000000000000e+00" purity="4.6275529265403748e-01" nType="0">
              <Node pos="l" depth="4" NCoef="0" IVar="-1" Cut="0.0000000000000000e+00" cType="1" res="-9.9000000000000000e+01" rms="0.0000000000000000e+00" purity="6.6896748542785645e-01" nType="1"/>
              <Node pos="r" depth="4" NCoef="0" IVar="-1" Cut="0.0000000000000000e+00" cType="1" res="-9.9000000000000000e+01" rms="0.0000000000000000e+00" purity="4.3262895941734314e-01" nType="-1"/>
            </Node>
            <Node pos="r" depth="3" NCoef="0" IVar="-1" Cut="7.2255487060546875e+02" cType="0" res="-9.9000000000000000e+01" rms="0.0000000000000000e+00" purity="2.9930678009986877e-01" nType="-1"/>
          </Node>
        </Node>
      </Node>
    </BinaryTree>
    <BinaryTree type="DecisionTree" boostWeight="8.6385557722807829e-02" itree="14">
      <Node pos="s" depth="0" NCoef="0" IVar="12" Cut="2.0838112792968750e+03" cType="0" res="-9.9000000000000000e+01" rms="0.0000000000000000e+00" purity="4.9539807438850403e-01" nType="0">
        <Node pos="l" depth="1" NCoef="0" IVar="2" Cut="3.4430634975433350e-01" cType="1" res="-9.9000000000000000e+01" rms="0.0000000000000000e+00" purity="6.7218536138534546e-01" nType="0">
          <Node pos="l" depth="2" NCoef="0" IVar="-1" Cut="3.1428570747375488e+00" cType="1" res="-9.9000000000000000e+01" rms="0.0000000000000000e+00" purity="7.6355475187301636e-01" nType="1"/>
          <Node pos="r" depth="2" NCoef="0" IVar="3" Cut="8.2644879150390625e+02" cType="0" res="-9.9000000000000000e+01" rms="0.0000000000000000e+00" purity="5.5647867918014526e-01" nType="0">
            <Node pos="l" depth="3" NCoef="0" IVar="-1" Cut="0.0000000000000000e+00" cType="1" res="-9.9000000000000000e+01" rms="0.0000000000000000e+00" purity="7.0450294017791748e-01" nType="1"/>
            <Node pos="r" depth="3" NCoef="0" IVar="10" Cut="5.0222635269165039e+00" cType="1" res="-9.9000000000000000e+01" rms="0.0000000000000000e+00" purity="5.1474982500076294e-01" nType="0">
              <Node pos="l" depth="4" NCoef="0" IVar="-1" Cut="0.0000000000000000e+00" cType="1" res="-9.9000000000000000e+01" rms="0.0000000000000000e+00" purity="6.2416595220565796e-01" nType="1"/>
              <Node pos="r" depth="4" NCoef="0" IVar="-1" Cut="0.0000000000000000e+00" cType="1" res="-9.9000000000000000e+01" rms="0.0000000000000000e+00" purity="4.6287855505943298e-01" nType="-1"/>
            </Node>
          </Node>
        </Node>
        <Node pos="r" depth="1" NCoef="0" IVar="12" Cut="9.5247338867187500e+02" cType="0" res="-9.9000000000000000e+01" rms="0.0000000000000000e+00" purity="4.6357029676437378e-01" nType="0">
          <Node pos="l" depth="2" NCoef="0" IVar="10" Cut="4.7834239006042480e+00" cType="1" res="-9.9000000000000000e+01" rms="0.0000000000000000e+00" purity="5.1845520734786987e-01" nType="0">
            <Node pos="l" depth="3" NCoef="0" IVar="-1" Cut="3.7933608889579773e-01" cType="1" res="-9.9000000000000000e+01" rms="0.0000000000000000e+00" purity="5.8139455318450928e-01" nType="1"/>
            <Node pos="r" depth="3" NCoef="0" IVar="-1" Cut="1.4290795326232910e+00" cType="1" res="-9.9000000000000000e+01" rms="0.0000000000000000e+00" purity="4.2205792665481567e-01" nType="-1"/>
          </Node>
          <Node pos="r" depth="2" NCoef="0" IVar="-1" Cut="1.9049799442291260e-01" cType="0" res="-9.9000000000000000e+01" rms="0.0000000000000000e+00" purity="3.9435988664627075e-01" nType="-1"/>
        </Node>
      </Node>
    </BinaryTree>
    <BinaryTree type="DecisionTree" boostWeight="8.7229375400051823e-02" itree="15">
      <Node pos="s" depth="0" NCoef="0" IVar="12" Cut="8.8561846923828125e+02" cType="0" res="-9.9000000000000000e+01" rms="0.0000000000000000e+00" purity="5.0584268569946289e-01" nType="0">
        <Node pos="l" depth="1" NCoef="0" IVar="5" Cut="3.4285714626312256e+00" cType="1" res="-9.9000000000000000e+01" rms="0.0000000000000000e+00" purity="5.5906289815902710e-01" nType="0">
          <Node pos="l" depth="2" NCoef="0" IVar="-1" Cut="2.3543552246093750e+03" cType="0" res="-9.9000000000000000e+01" rms="0.0000000000000000e+00" purity="6.0646498203277588e-01" nType="1"/>
          <Node pos="r" depth="2" NCoef="0" IVar="2" Cut="4.4656857848167419e-01" cType="1" res="-9.9000000000000000e+01" rms="0.0000000000000000e+00" purity="4.5769870281219482e-01" nType="0">
            <Node pos="l" depth="3" NCoef="0" IVar="10" Cut="4.3910784721374512e+00" cType="1" res="-9.9000000000000000e+01" rms="0.0000000000000000e+00" purity="4.9075043201446533e-01" nType="0">
              <Node pos="l" depth="4" NCoef="0" IVar="-1" Cut="0.0000000000000000e+00" cType="1" res="-9.9000000000000000e+01" rms="0.0000000000000000e+00" purity="5.7038348913192749e-01" nType="1"/>
              <Node pos="r" depth="4" NCoef="0" IVar="-1" Cut="0.0000000000000000e+00" cType="1" res="-9.9000000000000000e+01" rms="0.0000000000000000e+00" purity="4.4288703799247742e-01" nType="-1"/>
            </Node>
            <Node pos="r" depth="3" NCoef="0" IVar="-1" Cut="1.7107470035552979e+00" cType="1" res="-9.9000000000000000e+01" rms="0.0000000000000000e+00" purity="3.3234351873397827e-01" nType="-1"/>
          </Node>
        </Node>
        <Node pos="r" depth="1" NCoef="0" IVar="9" Cut="6.1876273155212402e-01" cType="0" res="-9.9000000000000000e+01" rms="0.0000000000000000e+00" purity="3.9358845353126526e-01" nType="0">
          <Node pos="l" depth="2" NCoef="0" IVar="7" Cut="3.3318853378295898e-01" cType="0" res="-9.9000000000000000e+01" rms="0.0000000000000000e+00" purity="4.7058922052383423e-01" nType="0">
            <Node pos="l" depth="3" NCoef="0" IVar="3" Cut="7.5427600097656250e+02" cType="0" res="-9.9000000000000000e+01" rms="0.0000000000000000e+00" purity="5.2553558349609375e-01" nType="0">
              <Node pos="l" depth="4" NCoef="0" IVar="-1" Cut="0.0000000000000000e+00" cType="1" res="-9.9000000000000000e+01" rms="0.0000000000000000e+00" purity="6.6951704025268555e-01" nType="1"/>
              <Node pos="r" depth="4" NCoef="0" IVar="-1" Cut="0.0000000000000000e+00" cType="1" res="-9.9000000000000000e+01" rms="0.0000000000000000e+00" purity="4.9351230263710022e-01" nType="-1"/>
            </Node>
            <Node pos="r" depth="3" NCoef="0" IVar="-1" Cut="8.0252975463867188e+01" cType="0" res="-9.9000000000000000e+01" rms="0.0000000000000000e+00" purity="3.7074604630470276e-01" nType="-1"/>
          </Node>
          <Node pos="r" depth="2" NCoef="0" IVar="-1" Cut="6.8367675781250000e+02" cType="0" res="-9.9000000000000000e+01" rms="0.0000000000000000e+00" purity="3.3130055665969849e-01" nType="-1"/>
        </Node>
      </Node>
    </BinaryTree>
    <BinaryTree type="DecisionTree" boostWeight="7.9531125459081586e-02" itree="16">
      <Node pos="s" depth="0" NCoef="0" IVar="12" Cut="2.0204711914062500e+03" cType="0" res="-9.9000000000000000e+01" rms="0.0000000000000000e+00" purity="5.0059318542480469e-01" nType="0">
        <Node pos="l" depth="1" NCoef="0" IVar="2" Cut="2.9858195781707764e-01" cType="1" res="-9.9000000000000000e+01" rms="0.0000000000000000e+00" purity="6.5764886140823364e-01" nType="0">
          <Node pos="l" depth="2" NCoef="0" IVar="-1" Cut="3.3333332538604736e+00" cType="1" res="-9.9000000000000000e+01" rms="0.0000000000000000e+00" purity="7.6478159427642822e-01" nType="1"/>
          <Node pos="r" depth="2" NCoef="0" IVar="12" Cut="2.9533312988281250e+03" cType="0" res="-9.9000000000000000e+01" rms="0.0000000000000000e+00" purity="5.7836532592773438e-01" nType="0">
            <Node pos="l" depth="3" NCoef="0" IVar="-1" Cut="4.1830947995185852e-01" cType="1" res="-9.9000000000000000e+01" rms="0.0000000000000000e+00" purity="6.9022488594055176e-01" nType="1"/>
            <Node pos="r" depth="3" NCoef="0" IVar="10" Cut="5.1313300132751465e+00" cType="1" res="-9.9000000000000000e+01" rms="0.0000000000000000e+00" purity="5.3546977043151855e-01" nType="0">
              <Node pos="l" depth="4" NCoef="0" IVar="-1" Cut="0.0000000000000000e+00" cType="1" res="-9.9000000000000000e+01" rms="0.0000000000000000e+00" purity="6.3914495706558228e-01" nType="1"/>
              <Node pos="r" depth="4" NCoef="0" IVar="-1" Cut="0.0000000000000000e+00" cType="1" res="-9.9000000000000000e+01" rms="0.0000000000000000e+00" purity="4.6012392640113831e-01" nType="-1"/>
            </Node>
          </Node>
        </Node>
        <Node pos="r" depth="1" NCoef="0" IVar="2" Cut="3.1107109785079956e-01" cType="1" res="-9.9000000000000000e+01" rms="0.0000000000000000e+00" purity="4.6892604231834412e-01" nType="0">
          <Node pos="l" depth="2" NCoef="0" IVar="9" Cut="7.6198333501815796e-01" cType="0" res="-9.9000000000000000e+01" rms="0.0000000000000000e+00" purity="5.4190242290496826e-01" nType="0">
            <Node pos="l" depth="3" NCoef="0" IVar="-1" Cut="2.4285714626312256e+00" cType="1" res="-9.9000000000000000e+01" rms="0.0000000000000000e+00" purity="6.2943071126937866e-01" nType="1"/>
            <Node pos="r" depth="3" NCoef="0" IVar="5" Cut="2.3809523582458496e+00" cType="1" res="-9.9000000000000000e+01" rms="0.0000000000000000e+00" purity="4.9371162056922913e-01" nType="0">
              <Node pos="l" depth="4" NCoef="0" IVar="-1" Cut="0.0000000000000000e+00" cType="1" res="-9.9000000000000000e+01" rms="0.0000000000000000e+00" purity="5.7402813434600830e-01" nType="1"/>
              <Node pos="r" depth="4" NCoef="0" IVar="-1" Cut="0.0000000000000000e+00" cType="1" res="-9.9000000000000000e+01" rms="0.0000000000000000e+00" purity="4.5114430785179138e-01" nType="-1"/>
            </Node>
          </Node>
          <Node pos="r" depth="2" NCoef="0" IVar="-1" Cut="7.4556549072265625e+01" cType="0" res="-9.9000000000000000e+01" rms="0.0000000000000000e+00" purity="4.1832557320594788e-01" nType="-1"/>
        </Node>
      </Node>
    </BinaryTree>
    <BinaryTree type="DecisionTree" boostWeight="8.5633255932231284e-02" itree="17">
      <Node pos="s" depth="0" NCoef="0" IVar="12" Cut="2.0581689453125000e+03" cType="0" res="-9.9000000000000000e+01" rms="0.0000000000000000e+00" purity="5.0094735622406006e-01" nType="0">
        <Node pos="l" depth="1" NCoef="0" IVar="2" Cut="3.6903190612792969e-01" cType="1" res="-9.9000000000000000e+01" rms="0.0000000000000000e+00" purity="6.5941762924194336e-01" nType="0">
          <Node pos="l" depth="2" NCoef="0" IVar="-1" Cut="3.1428570747375488e+00" cType="1" res="-9.9000000000000000e+01" rms="0.0000000000000000e+00" purity="7.2978556156158447e-01" nType="1"/>
          <Node pos="r" depth="2" NCoef="0" IVar="3" Cut="6.7624468994140625e+02" cType="0" res="-9.9000000000000000e+01" rms="0.0000000000000000e+00" purity="5.3781020641326904e-01" nType="0">
            <Node pos="l" depth="3" NCoef="0" IVar="-1" Cut="0.0000000000000000e+00" cType="1" res="-9.9000000000000000e+01" rms="0.0000000000000000e+00" purity="6.5794771909713745e-01" nType="1"/>
            <Node pos="r" depth="3" NCoef="0" IVar="10" Cut="5.4402990341186523e+00" cType="1" res="-9.9000000000000000e+01" rms="0.0000000000000000e+00" purity="4.8268681764602661e-01" nType="0">
              <Node pos="l" depth="4" NCoef="0" IVar="-1" Cut="0.0000000000000000e+00" cType="1" res="-9.9000000000000000e+01" rms="0.0000000000000000e+00" purity="5.7772910594940186e-01" nType="1"/>
              <Node pos="r" depth="4" NCoef="0" IVar="-1" Cut="0.0000000000000000e+00" cType="1" res="-9.9000000000000000e+01" rms="0.0000000000000000e+00" purity="3.9528417587280273e-01" nType="-1"/>
            </Node>
          </Node>
        </Node>
        <Node pos="r" depth="1" NCoef="0" IVar="12" Cut="7.2260369873046875e+02" cType="0" res="-9.9000000000000000e+01" rms="0.0000000000000000e+00" purity="4.7042724490165710e-01" nType="0">
          <Node pos="l" depth="2" NCoef="0" IVar="5" Cut="3.2857143878936768e+00" cType="1" res="-9.9000000000000000e+01" rms="0.0000000000000000e+00" purity="4.9964100122451782e-01" nType="0">
            <Node pos="l" depth="3" NCoef="0" IVar="1" Cut="7.6455360412597656e+01" cType="0" res="-9.9000000000000000e+01" rms="0.0000000000000000e+00" purity="5.3781467676162720e-01" nType="0">
              <Node pos="l" depth="4" NCoef="0" IVar="-1" Cut="0.0000000000000000e+00" cType="1" res="-9.9000000000000000e+01" rms="0.0000000000000000e+00" purity="5.6903737783432007e-01" nType="1"/>
              <Node pos="r" depth="4" NCoef="0" IVar="-1" Cut="0.0000000000000000e+00" cType="1" res="-9.9000000000000000e+01" rms="0.0000000000000000e+00" purity="4.4013696908950806e-01" nType="-1"/>
            </Node>
            <Node pos="r" depth="3" NCoef="0" IVar="-1" Cut="5.2012243270874023e+00" cType="1" res="-9.9000000000000000e+01" rms="0.0000000000000000e+00" purity="4.1260993480682373e-01" nType="-1"/>
          </Node>
          <Node pos="r" depth="2" NCoef="0" IVar="9" Cut="7.6159948110580444e-01" cType="0" res="-9.9000000000000000e+01" rms="0.0000000000000000e+00" purity="3.6759766936302185e-01" nType="0">
            <Node pos="l" depth="3" NCoef="0" IVar="2" Cut="4.1631245613098145e-01" cType="1" res="-9.9000000000000000e+01" rms="0.0000000000000000e+00" purity="4.7511070966720581e-01" nType="0">
              <Node pos="l" depth="4" NCoef="0" IVar="-1" Cut="0.0000000000000000e+00" cType="1" res="-9.9000000000000000e+01" rms="0.0000000000000000e+00" purity="5.3323566913604736e-01" nType="1"/>
              <Node pos="r" depth="4" NCoef="0" IVar="-1" Cut="0.0000000000000000e+00" cType="1" res="-9.9000000000000000e+01" rms="0.0000000000000000e+00" purity="3.3297032117843628e-01" nType="-1"/>
            </Node>
            <Node pos="r" depth="3" NCoef="0" IVar="-1" Cut="4.5666688680648804e-01" cType="1" res="-9.9000000000000000e+01" rms="0.0000000000000000e+00" purity="3.1221860647201538e-01" nType="-1"/>
          </Node>
        </Node>
      </Node>
    </BinaryTree>
    <BinaryTree type="DecisionTree" boostWeight="8.5157538270988944e-02" itree="18">
      <Node pos="s" depth="0" NCoef="0" IVar="12" Cut="1.6566676025390625e+03" cType="0" res="-9.9000000000000000e+01" rms="0.0000000000000000e+00" purity="5.0196766853332520e-01" nType="0">
        <Node pos="l" depth="1" NCoef="0" IVar="2" Cut="3.3960825204849243e-01" cType="1" res="-9.9000000000000000e+01" rms="0.0000000000000000e+00" purity="6.1994868516921997e-01" nType="0">
          <Node pos="l" depth="2" NCoef="0" IVar="-1" Cut="2.4285714626312256e+00" cType="1" res="-9.9000000000000000e+01" rms="0.0000000000000000e+00" purity="6.9773209095001221e-01" nType="1"/>
          <Node pos="r" depth="2" NCoef="0" IVar="4" Cut="1.0682199001312256e+00" cType="1" res="-9.9000000000000000e+01" rms="0.0000000000000000e+00" purity="5.3161025047302246e-01" nType="0">
            <Node pos="l" depth="3" NCoef="0" IVar="14" Cut="-7.8734487295150757e-01" cType="0" res="-9.9000000000000000e+01" rms="0.0000000000000000e+00" purity="5.6985545158386230e-01" nType="0">
              <Node pos="l" depth="4" NCoef="0" IVar="-1" Cut="0.0000000000000000e+00" cType="1" res="-9.9000000000000000e+01" rms="0.0000000000000000e+00" purity="6.2846398353576660e-01" nType="1"/>
              <Node pos="r" depth="4" NCoef="0" IVar="-1" Cut="0.0000000000000000e+00" cType="1" res="-9.9000000000000000e+01" rms="0.0000000000000000e+00" purity="4.5608887076377869e-01" nType="-1"/>
            </Node>
            <Node pos="r" depth="3" NCoef="0" IVar="-1" Cut="-2.4487538337707520e+00" cType="0" res="-9.9000000000000000e+01" rms="0.0000000000000000e+00" purity="3.9041647315025330e-01" nType="-1"/>
          </Node>
        </Node>
        <Node pos="r" depth="1" NCoef="0" IVar="7" Cut="2.8573352098464966e-01" cType="0" res="-9.9000000000000000e+01" rms="0.0000000000000000e+00" purity="4.5988005399703979e-01" nType="0">
          <Node pos="l" depth="2" NCoef="0" IVar="9" Cut="5.7116091251373291e-01" cType="0" res="-9.9000000000000000e+01" rms="0.0000000000000000e+00" purity="4.9621635675430298e-01" nType="0">
            <Node pos="l" depth="3" NCoef="0" IVar="14" Cut="-1.4471944570541382e+00" cType="0" res="-9.9000000000000000e+01" rms="0.0000000000000000e+00" purity="5.5107825994491577e-01" nType="0">
              <Node pos="l" depth="4" NCoef="0" IVar="-1" Cut="0.0000000000000000e+00" cType="1" res="-9.9000000000000000e+01" rms="0.0000000000000000e+00" purity="5.6733566522598267e-01" nType="1"/>
              <Node pos="r" depth="4" NCoef="0" IVar="-1" Cut="0.0000000000000000e+00" cType="1" res="-9.9000000000000000e+01" rms="0.0000000000000000e+00" purity="3.4200602769851685e-01" nType="-1"/>
            </Node>
            <Node pos="r" depth="3" NCoef="0" IVar="-1" Cut="6.6524542236328125e+02" cType="0" res="-9.9000000000000000e+01" rms="0.0000000000000000e+00" purity="4.4330260157585144e-01" nType="-1"/>
          </Node>
          <Node pos="r" depth="2" NCoef="0" IVar="1" Cut="7.8354164123535156e+01" cType="0" res="-9.9000000000000000e+01" rms="0.0000000000000000e+00" purity="3.8249018788337708e-01" nType="0">
            <Node pos="l" depth="3" NCoef="0" IVar="3" Cut="8.1106640625000000e+02" cType="0" res="-9.9000000000000000e+01" rms="0.0000000000000000e+00" purity="4.2237347364425659e-01" nType="0">
              <Node pos="l" depth="4" NCoef="0" IVar="-1" Cut="0.0000000000000000e+00" cType="1" res="-9.9000000000000000e+01" rms="0.0000000000000000e+00" purity="5.7962244749069214e-01" nType="1"/>
              <Node pos="r" depth="4" NCoef="0" IVar="-1" Cut="0.0000000000000000e+00" cType="1" res="-9.9000000000000000e+01" rms="0.0000000000000000e+00" purity="3.9139133691787720e-01" nType="-1"/>
            </Node>
            <Node pos="r" depth="3" NCoef="0" IVar="-1" Cut="8.3053436279296875e+02" cType="0" res="-9.9000000000000000e+01" rms="0.0000000000000000e+00" purity="2.8776293992996216e-01" nType="-1"/>
          </Node>
        </Node>
      </Node>
    </BinaryTree>
    <BinaryTree type="DecisionTree" boostWeight="7.8611408246053560e-02" itree="19">
      <Node pos="s" depth="0" NCoef="0" IVar="12" Cut="1.6566547851562500e+03" cType="0" res="-9.9000000000000000e+01" rms="0.0000000000000000e+00" purity="5.0283974409103394e-01" nType="0">
        <Node pos="l" depth="1" NCoef="0" IVar="2" Cut="3.1733825802803040e-01" cType="1" res="-9.9000000000000000e+01" rms="0.0000000000000000e+00" purity="6.1396777629852295e-01" nType="0">
          <Node pos="l" depth="2" NCoef="0" IVar="-1" Cut="2.4285714626312256e+00" cType="1" res="-9.9000000000000000e+01" rms="0.0000000000000000e+00" purity="7.0229572057723999e-01" nType="1"/>
          <Node pos="r" depth="2" NCoef="0" IVar="14" Cut="1.2303255796432495e+00" cType="1" res="-9.9000000000000000e+01" rms="0.0000000000000000e+00" purity="5.3378701210021973e-01" nType="0">
            <Node pos="l" depth="3" NCoef="0" IVar="14" Cut="-1.3415396213531494e+00" cType="0" res="-9.9000000000000000e+01" rms="0.0000000000000000e+00" purity="5.6527024507522583e-01" nType="0">
              <Node pos="l" depth="4" NCoef="0" IVar="-1" Cut="0.0000000000000000e+00" cType="1" res="-9.9000000000000000e+01" rms="0.0000000000000000e+00" purity="5.9711748361587524e-01" nType="1"/>
              <Node pos="r" depth="4" NCoef="0" IVar="-1" Cut="0.0000000000000000e+00" cType="1" res="-9.9000000000000000e+01" rms="0.0000000000000000e+00" purity="4.0232619643211365e-01" nType="-1"/>
            </Node>
            <Node pos="r" depth="3" NCoef="0" IVar="-1" Cut="8.4050598144531250e+01" cType="0" res="-9.9000000000000000e+01" rms="0.0000000000000000e+00" purity="3.5947364568710327e-01" nType="-1"/>
          </Node>
        </Node>
        <Node pos="r" depth="1" NCoef="0" IVar="2" Cut="4.2809787392616272e-01" cType="1" res="-9.9000000000000000e+01" rms="0.0000000000000000e+00" purity="4.6312290430068970e-01" nType="0">
          <Node pos="l" depth="2" NCoef="0" IVar="7" Cut="4.7702323645353317e-02" cType="0" res="-9.9000000000000000e+01" rms="0.0000000000000000e+00" purity="4.9633538722991943e-01" nType="0">
            <Node pos="l" depth="3" NCoef="0" IVar="5" Cut="2.3809523582458496e+00" cType="1" res="-9.9000000000000000e+01" rms="0.0000000000000000e+00" purity="5.1722753047943115e-01" nType="0">
              <Node pos="l" depth="4" NCoef="0" IVar="-1" Cut="0.0000000000000000e+00" cType="1" res="-9.9000000000000000e+01" rms="0.0000000000000000e+00" purity="5.8370381593704224e-01" nType="1"/>
              <Node pos="r" depth="4" NCoef="0" IVar="-1" Cut="0.0000000000000000e+00" cType="1" res="-9.9000000000000000e+01" rms="0.0000000000000000e+00" purity="4.7587910294532776e-01" nType="-1"/>
            </Node>
            <Node pos="r" depth="3" NCoef="0" IVar="-1" Cut="2.2996778786182404e-01" cType="1" res="-9.9000000000000000e+01" rms="0.0000000000000000e+00" purity="3.6340588331222534e-01" nType="-1"/>
          </Node>
          <Node pos="r" depth="2" NCoef="0" IVar="-1" Cut="6.6524566650390625e+02" cType="0" res="-9.9000000000000000e+01" rms="0.0000000000000000e+00" purity="3.6941125988960266e-01" nType="-1"/>
        </Node>
      </Node>
    </BinaryTree>
    <BinaryTree type="DecisionTree" boostWeight="6.3854832030291853e-02" itree="20">
      <Node pos="s" depth="0" NCoef="0" IVar="12" Cut="8.8554431152343750e+02" cType="0" res="-9.9000000000000000e+01" rms="0.0000000000000000e+00" purity="5.1246446371078491e-01" nType="0">
        <Node pos="l" depth="1" NCoef="0" IVar="2" Cut="2.3980121314525604e-01" cType="1" res="-9.9000000000000000e+01" rms="0.0000000000000000e+00" purity="5.5353623628616333e-01" nType="0">
          <Node pos="l" depth="2" NCoef="0" IVar="-1" Cut="2.3542836914062500e+03" cType="0" res="-9.9000000000000000e+01" rms="0.0000000000000000e+00" purity="6.7136412858963013e-01" nType="1"/>
          <Node pos="r" depth="2" NCoef="0" IVar="5" Cut="2.5238094329833984e+00" cType="1" res="-9.9000000000000000e+01" rms="0.0000000000000000e+00" purity="5.1952975988388062e-01" nType="0">
            <Node pos="l" depth="3" NCoef="0" IVar="1" Cut="7.6455360412597656e+01" cType="0" res="-9.9000000000000000e+01" rms="0.0000000000000000e+00" purity="5.9630596637725830e-01" nType="0">
              <Node pos="l" depth="4" NCoef="0" IVar="-1" Cut="0.0000000000000000e+00" cType="1" res="-9.9000000000000000e+01" rms="0.0000000000000000e+00" purity="6.3718563318252563e-01" nType="1"/>
              <Node pos="r" depth="4" NCoef="0" IVar="-1" Cut="0.0000000000000000e+00" cType="1" res="-9.9000000000000000e+01" rms="0.0000000000000000e+00" purity="4.8423141241073608e-01" nType="-1"/>
            </Node>
            <Node pos="r" depth="3" NCoef="0" IVar="-1" Cut="1.4543224573135376e+00" cType="1" res="-9.9000000000000000e+01" rms="0.0000000000000000e+00" purity="4.8037829995155334e-01" nType="-1"/>
          </Node>
        </Node>
        <Node pos="r" depth="1" NCoef="0" IVar="7" Cut="1.4286233484745026e-01" cType="0" res="-9.9000000000000000e+01" rms="0.0000000000000000e+00" purity="4.2732098698616028e-01" nType="0">
          <Node pos="l" depth="2" NCoef="0" IVar="14" Cut="9.7439342737197876e-01" cType="1" res="-9.9000000000000000e+01" rms="0.0000000000000000e+00" purity="4.5812499523162842e-01" nType="0">
            <Node pos="l" depth="3" NCoef="0" IVar="9" Cut="1.4313112199306488e-01" cType="0" res="-9.9000000000000000e+01" rms="0.0000000000000000e+00" purity="4.8296198248863220e-01" nType="0">
              <Node pos="l" depth="4" NCoef="0" IVar="-1" Cut="0.0000000000000000e+00" cType="1" res="-9.9000000000000000e+01" rms="0.0000000000000000e+00" purity="5.1399785280227661e-01" nType="1"/>
              <Node pos="r" depth="4" NCoef="0" IVar="-1" Cut="0.0000000000000000e+00" cType="1" res="-9.9000000000000000e+01" rms="0.0000000000000000e+00" purity="3.9140331745147705e-01" nType="-1"/>
            </Node>
            <Node pos="r" depth="3" NCoef="0" IVar="-1" Cut="7.3845123291015625e+02" cType="0" res="-9.9000000000000000e+01" rms="0.0000000000000000e+00" purity="3.3167961239814758e-01" nType="-1"/>
          </Node>
          <Node pos="r" depth="2" NCoef="0" IVar="-1" Cut="3.3796036243438721e-01" cType="1" res="-9.9000000000000000e+01" rms="0.0000000000000000e+00" purity="3.3308100700378418e-01" nType="-1"/>
        </Node>
      </Node>
    </BinaryTree>
    <BinaryTree type="DecisionTree" boostWeight="6.6060891264203364e-02" itree="21">
      <Node pos="s" depth="0" NCoef="0" IVar="2" Cut="2.6924967765808105e-01" cType="1" res="-9.9000000000000000e+01" rms="0.0000000000000000e+00" purity="5.0306618213653564e-01" nType="0">
        <Node pos="l" depth="1" NCoef="0" IVar="12" Cut="1.6568908691406250e+03" cType="0" res="-9.9000000000000000e+01" rms="0.0000000000000000e+00" purity="5.9121578931808472e-01" nType="0">
          <Node pos="l" depth="2" NCoef="0" IVar="-1" Cut="3.2857143878936768e+00" cType="1" res="-9.9000000000000000e+01" rms="0.0000000000000000e+00" purity="7.0701634883880615e-01" nType="1"/>
          <Node pos="r" depth="2" NCoef="0" IVar="10" Cut="4.5720682144165039e+00" cType="1" res="-9.9000000000000000e+01" rms="0.0000000000000000e+00" purity="5.4522079229354858e-01" nType="0">
            <Node pos="l" depth="3" NCoef="0" IVar="12" Cut="8.3061499023437500e+02" cType="0" res="-9.9000000000000000e+01" rms="0.0000000000000000e+00" purity="5.8128285408020020e-01" nType="0">
              <Node pos="l" depth="4" NCoef="0" IVar="-1" Cut="0.0000000000000000e+00" cType="1" res="-9.9000000000000000e+01" rms="0.0000000000000000e+00" purity="6.6066431999206543e-01" nType="1"/>
              <Node pos="r" depth="4" NCoef="0" IVar="-1" Cut="0.0000000000000000e+00" cType="1" res="-9.9000000000000000e+01" rms="0.0000000000000000e+00" purity="4.8796159029006958e-01" nType="-1"/>
            </Node>
            <Node pos="r" depth="3" NCoef="0" IVar="3" Cut="6.1115704345703125e+02" cType="0" res="-9.9000000000000000e+01" rms="0.0000000000000000e+00" purity="4.5404103398323059e-01" nType="0">
              <Node pos="l" depth="4" NCoef="0" IVar="-1" Cut="0.0000000000000000e+00" cType="1" res="-9.9000000000000000e+01" rms="0.0000000000000000e+00" purity="5.6504762172698975e-01" nType="1"/>
              <Node pos="r" depth="4" NCoef="0" IVar="-1" Cut="0.0000000000000000e+00" cType="1" res="-9.9000000000000000e+01" rms="0.0000000000000000e+00" purity="3.7819218635559082e-01" nType="-1"/>
            </Node>
          </Node>
        </Node>
        <Node pos="r" depth="1" NCoef="0" IVar="7" Cut="4.7644704580307007e-02" cType="0" res="-9.9000000000000000e+01" rms="0.0000000000000000e+00" purity="4.6674531698226929e-01" nType="0">
          <Node pos="l" depth="2" NCoef="0" IVar="14" Cut="1.4905663728713989e+00" cType="1" res="-9.9000000000000000e+01" rms="0.0000000000000000e+00" purity="4.8678728938102722e-01" nType="0">
            <Node pos="l" depth="3" NCoef="0" IVar="4" Cut="-1.5484095811843872e+00" cType="0" res="-9.9000000000000000e+01" rms="0.0000000000000000e+00" purity="5.0164616107940674e-01" nType="0">
              <Node pos="l" depth="4" NCoef="0" IVar="-1" Cut="0.0000000000000000e+00" cType="1" res="-9.9000000000000000e+01" rms="0.0000000000000000e+00" purity="5.2133792638778687e-01" nType="1"/>
              <Node pos="r" depth="4" NCoef="0" IVar="-1" Cut="0.0000000000000000e+00" cType="1" res="-9.9000000000000000e+01" rms="0.0000000000000000e+00" purity="3.6803239583969116e-01" nType="-1"/>
            </Node>
            <Node pos="r" depth="3" NCoef="0" IVar="-1" Cut="6.7224456787109375e+02" cType="0" res="-9.9000000000000000e+01" rms="0.0000000000000000e+00" purity="3.0591058731079102e-01" nType="-1"/>
          </Node>
          <Node pos="r" depth="2" NCoef="0" IVar="-1" Cut="5.7096557617187500e+02" cType="0" res="-9.9000000000000000e+01" rms="0.0000000000000000e+00" purity="3.1847250461578369e-01" nType="-1"/>
        </Node>
      </Node>
    </BinaryTree>
    <BinaryTree type="DecisionTree" boostWeight="7.5926682480776719e-02" itree="22">
      <Node pos="s" depth="0" NCoef="0" IVar="2" Cut="2.8258660435676575e-01" cType="1" res="-9.9000000000000000e+01" rms="0.0000000000000000e+00" purity="5.0516486167907715e-01" nType="0">
        <Node pos="l" depth="1" NCoef="0" IVar="12" Cut="1.9876402587890625e+03" cType="0" res="-9.9000000000000000e+01" rms="0.0000000000000000e+00" purity="5.9459620714187622e-01" nType="0">
          <Node pos="l" depth="2" NCoef="0" IVar="-1" Cut="3.3333332538604736e+00" cType="1" res="-9.9000000000000000e+01" rms="0.0000000000000000e+00" purity="7.4482291936874390e-01" nType="1"/>
          <Node pos="r" depth="2" NCoef="0" IVar="5" Cut="2.4285714626312256e+00" cType="1" res="-9.9000000000000000e+01" rms="0.0000000000000000e+00" purity="5.6019252538681030e-01" nType="0">
            <Node pos="l" depth="3" NCoef="0" IVar="-1" Cut="5.2390342950820923e-01" cType="0" res="-9.9000000000000000e+01" rms="0.0000000000000000e+00" purity="6.3378351926803589e-01" nType="1"/>
            <Node pos="r" depth="3" NCoef="0" IVar="3" Cut="8.5025695800781250e+02" cType="0" res="-9.9000000000000000e+01" rms="0.0000000000000000e+00" purity="5.1427245140075684e-01" nType="0">
              <Node pos="l" depth="4" NCoef="0" IVar="-1" Cut="0.0000000000000000e+00" cType="1" res="-9.9000000000000000e+01" rms="0.0000000000000000e+00" purity="6.6577631235122681e-01" nType="1"/>
              <Node pos="r" depth="4" NCoef="0" IVar="-1" Cut="0.0000000000000000e+00" cType="1" res="-9.9000000000000000e+01" rms="0.0000000000000000e+00" purity="4.9674031138420105e-01" nType="-1"/>
            </Node>
          </Node>
        </Node>
        <Node pos="r" depth="1" NCoef="0" IVar="12" Cut="8.1676251220703125e+02" cType="0" res="-9.9000000000000000e+01" rms="0.0000000000000000e+00" purity="4.6204549074172974e-01" nType="0">
          <Node pos="l" depth="2" NCoef="0" IVar="14" Cut="1.0323169231414795e+00" cType="1" res="-9.9000000000000000e+01" rms="0.0000000000000000e+00" purity="4.9759262800216675e-01" nType="0">
            <Node pos="l" depth="3" NCoef="0" IVar="4" Cut="-1.3105701208114624e+00" cType="0" res="-9.9000000000000000e+01" rms="0.0000000000000000e+00" purity="5.2324205636978149e-01" nType="0">
              <Node pos="l" depth="4" NCoef="0" IVar="-1" Cut="0.0000000000000000e+00" cType="1" res="-9.9000000000000000e+01" rms="0.0000000000000000e+00" purity="5.5307286977767944e-01" nType="1"/>
              <Node pos="r" depth="4" NCoef="0" IVar="-1" Cut="0.0000000000000000e+00" cType="1" res="-9.9000000000000000e+01" rms="0.0000000000000000e+00" purity="4.0418452024459839e-01" nType="-1"/>
            </Node>
            <Node pos="r" depth="3" NCoef="0" IVar="-1" Cut="6.4402550458908081e-01" cType="1" res="-9.9000000000000000e+01" rms="0.0000000000000000e+00" purity="3.7912815809249878e-01" nType="-1"/>
          </Node>
          <Node pos="r" depth="2" NCoef="0" IVar="7" Cut="3.3335128426551819e-01" cType="0" res="-9.9000000000000000e+01" rms="0.0000000000000000e+00" purity="3.6727440357208252e-01" nType="0">
            <Node pos="l" depth="3" NCoef="0" IVar="9" Cut="9.5194172859191895e-01" cType="0" res="-9.9000000000000000e+01" rms="0.0000000000000000e+00" purity="4.1949990391731262e-01" nType="0">
              <Node pos="l" depth="4" NCoef="0" IVar="-1" Cut="0.0000000000000000e+00" cType="1" res="-9.9000000000000000e+01" rms="0.0000000000000000e+00" purity="5.5753040313720703e-01" nType="1"/>
              <Node pos="r" depth="4" NCoef="0" IVar="-1" Cut="0.0000000000000000e+00" cType="1" res="-9.9000000000000000e+01" rms="0.0000000000000000e+00" purity="3.9238253235816956e-01" nType="-1"/>
            </Node>
            <Node pos="r" depth="3" NCoef="0" IVar="-1" Cut="1.0708705186843872e+00" cType="1" res="-9.9000000000000000e+01" rms="0.0000000000000000e+00" purity="2.7528849244117737e-01" nType="-1"/>
          </Node>
        </Node>
      </Node>
    </BinaryTree>
    <BinaryTree type="DecisionTree" boostWeight="7.9261156145198575e-02" itree="23">
      <Node pos="s" depth="0" NCoef="0" IVar="2" Cut="3.9684900641441345e-01" cType="1" res="-9.9000000000000000e+01" rms="0.0000000000000000e+00" purity="5.0928795337677002e-01" nType="0">
        <Node pos="l" depth="1" NCoef="0" IVar="12" Cut="1.8268669433593750e+03" cType="0" res="-9.9000000000000000e+01" rms="0.0000000000000000e+00" purity="5.5183494091033936e-01" nType="0">
          <Node pos="l" depth="2" NCoef="0" IVar="-1" Cut="3.2857143878936768e+00" cType="1" res="-9.9000000000000000e+01" rms="0.0000000000000000e+00" purity="6.7229092121124268e-01" nType="1"/>
          <Node pos="r" depth="2" NCoef="0" IVar="3" Cut="5.7272125244140625e+02" cType="0" res="-9.9000000000000000e+01" rms="0.0000000000000000e+00" purity="5.1946097612380981e-01" nType="0">
            <Node pos="l" depth="3" NCoef="0" IVar="-1" Cut="9.5192492008209229e-01" cType="0" res="-9.9000000000000000e+01" rms="0.0000000000000000e+00" purity="5.8842211961746216e-01" nType="1"/>
            <Node pos="r" depth="3" NCoef="0" IVar="2" Cut="2.3278917372226715e-01" cType="1" res="-9.9000000000000000e+01" rms="0.0000000000000000e+00" purity="4.7562420368194580e-01" nType="0">
              <Node pos="l" depth="4" NCoef="0" IVar="-1" Cut="0.0000000000000000e+00" cType="1" res="-9.9000000000000000e+01" rms="0.0000000000000000e+00" purity="5.6812745332717896e-01" nType="1"/>
              <Node pos="r" depth="4" NCoef="0" IVar="-1" Cut="0.0000000000000000e+00" cType="1" res="-9.9000000000000000e+01" rms="0.0000000000000000e+00" purity="4.3681275844573975e-01" nType="-1"/>
            </Node>
          </Node>
        </Node>
        <Node pos="r" depth="1" NCoef="0" IVar="7" Cut="2.3818692564964294e-01" cType="0" res="-9.9000000000000000e+01" rms="0.0000000000000000e+00" purity="4.2335838079452515e-01" nType="0">
          <Node pos="l" depth="2" NCoef="0" IVar="3" Cut="6.0089630126953125e+02" cType="0" res="-9.9000000000000000e+01" rms="0.0000000000000000e+00" purity="4.5781120657920837e-01" nType="0">
            <Node pos="l" depth="3" NCoef="0" IVar="12" Cut="7.6716876220703125e+02" cType="0" res="-9.9000000000000000e+01" rms="0.0000000000000000e+00" purity="5.2582669258117676e-01" nType="0">
              <Node pos="l" depth="4" NCoef="0" IVar="-1" Cut="0.0000000000000000e+00" cType="1" res="-9.9000000000000000e+01" rms="0.0000000000000000e+00" purity="5.6265479326248169e-01" nType="1"/>
              <Node pos="r" depth="4" NCoef="0" IVar="-1" Cut="0.0000000000000000e+00" cType="1" res="-9.9000000000000000e+01" rms="0.0000000000000000e+00" purity="3.8900902867317200e-01" nType="-1"/>
            </Node>
            <Node pos="r" depth="3" NCoef="0" IVar="-1" Cut="1.1661022901535034e+00" cType="1" res="-9.9000000000000000e+01" rms="0.0000000000000000e+00" purity="4.1527497768402100e-01" nType="-1"/>
          </Node>
          <Node pos="r" depth="2" NCoef="0" IVar="-1" Cut="1.0616226806640625e+03" cType="0" res="-9.9000000000000000e+01" rms="0.0000000000000000e+00" purity="3.3474040031433105e-01" nType="-1"/>
        </Node>
      </Node>
    </BinaryTree>
    <BinaryTree type="DecisionTree" boostWeight="7.3225748876635230e-02" itree="24">
      <Node pos="s" depth="0" NCoef="0" IVar="12" Cut="2.4005734863281250e+03" cType="0" res="-9.9000000000000000e+01" rms="0.0000000000000000e+00" purity="5.0610452890396118e-01" nType="0">
        <Node pos="l" depth="1" NCoef="0" IVar="5" Cut="3.1428570747375488e+00" cType="1" res="-9.9000000000000000e+01" rms="0.0000000000000000e+00" purity="6.7266035079956055e-01" nType="0">
          <Node pos="l" depth="2" NCoef="0" IVar="-1" Cut="4.1391146183013916e-01" cType="1" res="-9.9000000000000000e+01" rms="0.0000000000000000e+00" purity="7.3862779140472412e-01" nType="1"/>
